[ 6.49470985e-02 -3.24806012e-02  5.63838631e-02  6.27107769e-02
 -6.66294247e-02  5.50872833e-02  1.76751688e-02 -4.02282998e-02
  5.13232201e-02  7.39974678e-02  9.59411263e-05 -3.94104794e-02
  5.31685352e-03  2.73572877e-02  4.86081764e-02 -8.94388556e-03
 -4.01099883e-02  3.00505161e-02 -6.09116256e-03  5.25825769e-02
  2.60923132e-02  1.33266449e-02  5.14513254e-03 -3.36366482e-02
 -1.98927186e-02 -9.54752415e-03  6.46973848e-02 -4.64217886e-02
  4.71344590e-02 -2.04408914e-02 -3.93315107e-02  4.38598245e-02
  6.59215599e-02 -1.25525109e-02  3.17850783e-02 -6.29218593e-02
  1.12986192e-02 -4.97923903e-02  3.32651660e-02  5.09334207e-02
  2.73081362e-02  1.81223899e-02  2.85923555e-02 -1.17700025e-02
 -4.55704108e-02 -2.20124274e-02  5.56098819e-02 -4.10411917e-02
 -2.07301229e-02 -6.02650866e-02 -7.09945038e-02  3.66156846e-02
 -3.40640396e-02 -1.55245438e-02  4.97173965e-02  4.79150191e-02
  1.35194734e-02 -6.87812045e-02 -5.64579591e-02 -1.97358280e-02
  8.73525441e-03  4.19293419e-02 -2.76966318e-02  3.81444246e-02
 -5.97510077e-02  3.17303613e-02  1.37436762e-02  4.86701727e-02
  7.37061352e-02 -3.36016491e-02  3.51596922e-02  2.18213573e-02
  1.50330365e-03  1.80563033e-02  2.92473584e-02 -6.04012422e-02
  3.89098078e-02  5.55571169e-03 -1.99171156e-03  2.12476254e-02
 -7.05998838e-02 -4.08921391e-02  5.75242639e-02  1.63526908e-02
  2.55967006e-02  2.95770019e-02 -2.15207003e-02  4.86914888e-02
  1.93369538e-02 -6.79021031e-02 -6.20608665e-02  3.20730880e-02
 -2.86846980e-02 -7.08850399e-02  2.93162018e-02 -6.56255186e-02
 -6.24047145e-02 -4.11066599e-02  9.22922045e-03  4.53566015e-03
 -6.28275126e-02 -5.23397066e-02  4.55375090e-02  3.36931050e-02
  6.20396584e-02  3.37924063e-03  2.69693807e-02  5.70616871e-02
  5.95969409e-02  4.97330427e-02 -5.44420481e-02 -4.76618633e-02
  7.08152950e-02 -3.16248536e-02  5.56181371e-02 -6.85042143e-02
  6.59386963e-02  9.36175883e-03 -4.98967767e-02 -1.51398778e-02
 -3.71099263e-03  3.43033969e-02 -1.79436654e-02 -1.67298652e-02
 -3.00690494e-02 -6.29782155e-02  2.09622085e-03  6.63292110e-02
  3.47293019e-02  6.95604086e-02 -8.45545530e-03  3.62229496e-02
 -5.70430383e-02  3.73245627e-02  6.71373755e-02  4.83167768e-02
 -4.40081209e-03 -5.45319095e-02 -7.99365342e-03 -4.25108783e-02
  2.58955285e-02  6.02737069e-02 -3.86682898e-02  4.94151562e-02
  5.21275550e-02  6.42166585e-02  4.97493967e-02 -4.25076857e-02
 -5.42772487e-02  5.69870472e-02  5.38250059e-02  8.25702399e-03
  7.41892606e-02  3.65225971e-03 -3.83306295e-03 -3.63145024e-03
 -4.37314734e-02  6.24546707e-02 -5.43801971e-02  7.36778677e-02
 -3.38033289e-02 -3.55613120e-02  6.76018298e-02  4.31983247e-02
 -7.13111758e-02 -5.56410775e-02 -6.02470264e-02 -2.48184688e-02
  2.98732743e-02  1.32668689e-02 -6.81891516e-02 -5.17943911e-02
  5.46141416e-02  7.16353655e-02 -5.47723621e-02 -2.23044120e-02
  2.02417150e-02 -4.69768271e-02  1.70177221e-03 -2.46121772e-02
  4.89799231e-02  8.23902339e-03 -5.79222292e-03  5.36339283e-02
 -6.30313158e-03 -2.84139141e-02 -2.01268941e-02  3.65695655e-02
 -4.82272021e-02 -5.14417961e-02  5.60426265e-02 -3.75548489e-02
 -4.17167544e-02  4.70268428e-02 -5.22239655e-02  5.87964803e-02
 -5.38076758e-02 -1.48915686e-02  6.02921844e-03 -3.78473289e-02
 -5.93470633e-02 -1.96010619e-03 -2.08093598e-02 -2.33885124e-02
  5.60809076e-02 -6.03355765e-02  1.50530860e-02 -8.47271830e-03
  7.08010942e-02  4.99715805e-02 -2.42752284e-02  4.99825552e-02
 -6.46941066e-02 -6.86151609e-02  3.66719514e-02 -6.98021799e-03
 -1.35766938e-02  2.59419307e-02  3.68938595e-03 -6.80335239e-02
  1.87401474e-02  5.74817359e-02  2.99701765e-02 -6.97413087e-03
  3.37875634e-03  1.41137615e-02  7.23705888e-02  1.30023807e-03
  7.24744797e-02  4.28636670e-02  3.06532457e-02 -9.98405367e-03
 -3.70143615e-02  3.08819115e-04  3.90364230e-03 -7.34808519e-02
  6.05180860e-02  4.45681661e-02  7.17381239e-02  6.67398870e-02
 -4.86202911e-02 -2.27489397e-02 -2.43720412e-02  4.55545709e-02
 -5.63178658e-02 -2.22845078e-02 -2.18459070e-02  2.27918327e-02
  6.24995381e-02  5.24695069e-02  1.89867616e-02  5.76336533e-02
  8.23071599e-03  3.81031260e-02  5.02152070e-02 -3.92567441e-02
 -6.52842224e-04 -4.63739187e-02 -6.19901977e-02 -3.32938470e-02
 -4.76338863e-02 -4.72377315e-02  3.42257544e-02  4.08155620e-02
  7.12747574e-02 -2.97764279e-02 -1.87309794e-02 -4.07293923e-02
  1.11460984e-02 -2.90883332e-03 -2.78855748e-02 -2.08145380e-02
 -4.26169485e-03 -2.60545500e-02  6.00447804e-02  8.25003535e-03
 -3.07778381e-02  1.84541419e-02  3.20978686e-02 -3.04415114e-02
 -3.59605886e-02  6.12007082e-02 -2.12575942e-02 -1.37492120e-02
 -2.50044689e-02  1.00031197e-02 -6.49653673e-02  6.29582256e-03
  6.96052611e-02  2.48487145e-02 -2.43734084e-02  6.62716776e-02
 -9.50915366e-03  6.85938895e-02  5.62186688e-02  6.74768835e-02
 -4.88292798e-02  6.68700486e-02  5.25697023e-02 -5.82624450e-02][ 3.17543224e-02 -5.70082888e-02 -6.19032457e-02 -5.24325669e-03
 -3.24684493e-02  2.53791437e-02  2.02222168e-02 -8.83296877e-03
 -3.43718268e-02 -4.33284342e-02 -5.68524636e-02 -7.24056214e-02
 -6.98233768e-02 -1.53953210e-02  2.93192267e-03  6.49580956e-02
 -2.91062407e-02  4.47621867e-02 -7.32704252e-03 -4.56878170e-02
 -2.86022015e-02 -5.92105687e-02 -4.46267202e-02 -4.40244675e-02
 -3.21493112e-02  2.96817273e-02 -2.85295807e-02  6.84212893e-02
  1.09580234e-02  1.85911506e-02 -1.51704401e-02 -2.81238444e-02
 -1.39905177e-02  3.68821621e-03  6.84981048e-03  1.95000246e-02
  7.22146928e-02 -1.76135488e-02  3.49181890e-02 -2.40259953e-02
  4.93068174e-02  4.41758931e-02 -4.06514369e-02  6.92937523e-02
  1.62573829e-02 -6.81521147e-02 -6.26908466e-02 -5.90035170e-02
 -3.76556814e-03 -6.45468831e-02  7.71932304e-04 -5.01429290e-02
 -1.88688189e-02  1.77636072e-02 -4.95493636e-02 -1.33309364e-02
 -5.56698814e-02  3.21695134e-02  2.94954255e-02 -4.43125442e-02
 -2.59364843e-02  3.52882221e-02 -6.31930679e-03 -2.77271383e-02
 -7.25199729e-02 -3.81426103e-02 -1.51297525e-02 -4.29177843e-02
 -1.77607164e-02  4.62791324e-03  5.46264499e-02 -4.86075878e-03
  3.27223837e-02  6.95698261e-02  1.14053190e-02  2.52464488e-02
  5.93366325e-02  1.17982626e-02 -4.37759236e-02  6.24753833e-02
  3.93354148e-02 -3.45363468e-03 -3.60910334e-02  3.86247039e-03
  4.19578478e-02 -5.95327616e-02 -1.93243101e-02  1.39592290e-02
 -8.07141513e-03 -6.12486303e-02  5.48822880e-02 -5.12188151e-02
  7.32406378e-02  2.24681497e-02  3.49521413e-02 -3.04587670e-02
  1.46942660e-02 -5.98316267e-02  2.03240141e-02 -3.23031694e-02
 -1.74692683e-02  7.02341348e-02 -5.50832003e-02  5.79655170e-05
 -1.35080852e-02 -6.26216158e-02 -2.67837532e-02  4.54604551e-02
 -4.68011871e-02 -4.53309640e-02 -2.10880041e-02 -6.28942400e-02
 -1.67680196e-02 -4.20463756e-02  5.32887876e-02 -2.29713358e-02
  4.98826057e-02 -5.60758114e-02  4.92839143e-02 -3.63687016e-02
  5.23628294e-03 -7.23541752e-02 -3.04212868e-02 -6.27221838e-02
 -1.09813139e-02  1.49450451e-03 -4.08263840e-02 -6.92020208e-02
  3.96897048e-02 -4.27353866e-02  1.08793899e-02  1.24497190e-02
  4.99956831e-02  1.54908746e-02  4.10179719e-02 -7.21850470e-02
  1.88372433e-02  5.26537895e-02  2.27831230e-02 -4.98673506e-02
  2.95178443e-02 -4.01041508e-02 -2.43538953e-02  3.78566235e-02
  2.93482915e-02  2.20408589e-02  5.48246056e-02 -7.17560947e-02
 -4.23785523e-02 -7.54179806e-03  7.24070370e-02 -8.63209367e-04
 -4.34230641e-02 -5.96971214e-02 -1.98969245e-03 -1.16469264e-02
 -6.11654967e-02 -4.64603342e-02 -3.28668579e-02 -7.19016045e-03
  3.32903862e-03 -6.89803138e-02 -7.26642907e-02 -3.46019939e-02
  1.35498792e-02 -1.00165159e-02  6.84470236e-02  1.30012631e-05
 -1.90740302e-02  6.48989230e-02  6.74486905e-03 -3.45307402e-02
 -2.62633227e-02 -6.92553744e-02  6.85873926e-02 -4.65549491e-02
 -5.29885218e-02  5.93719780e-02  5.06480932e-02 -1.50482357e-03
 -5.94394431e-02  4.81871516e-03 -4.27385420e-02 -4.26003300e-02
  6.51476085e-02 -3.69745567e-02 -5.51602729e-02 -4.88086678e-02
  1.91965103e-02 -2.12901235e-02  7.13364929e-02 -3.45106088e-02
 -1.78039446e-02 -2.95794494e-02  6.38971776e-02  7.07534552e-02
  5.10448813e-02 -6.67865351e-02  8.35531205e-03  5.76876551e-02
 -4.76334617e-02  4.85194325e-02 -4.47167754e-02  1.16547123e-02
 -1.78009309e-02 -3.94949317e-03  4.74813059e-02  1.20238736e-02
  1.82253793e-02  5.74186444e-03  4.22153622e-02 -5.13100065e-02
 -5.50277531e-03 -7.25058019e-02  7.44154304e-03  2.82125920e-03
 -5.06909899e-02  5.85645288e-02  5.23077101e-02  2.92050913e-02
 -6.48392364e-02 -1.25821680e-03  6.40518218e-02 -1.94816291e-03
 -3.78686339e-02 -2.18425542e-02  5.73766530e-02  2.60593891e-02
 -2.38115974e-02  6.59536570e-02 -6.99253902e-02  1.23691559e-03
 -3.81807834e-02  1.61256567e-02 -5.54875880e-02 -4.29315828e-02
 -2.38166004e-02 -3.54739167e-02  3.46184224e-02 -4.95399833e-02
  4.49791029e-02 -3.35617028e-02  6.27208501e-03  4.41031307e-02
  6.33127540e-02  3.94346043e-02  2.69441307e-03  4.05384600e-03
 -2.22815126e-02  3.95968705e-02 -6.17213286e-02  3.03454250e-02
 -4.14852798e-03 -2.30944566e-02 -1.76174194e-03 -5.79431131e-02
  1.06193125e-02 -3.12650427e-02  5.14567196e-02  3.97146791e-02
  6.57305568e-02 -6.71539530e-02  6.54609799e-02  5.85519522e-02
 -9.74920392e-03 -2.28306577e-02 -2.02523880e-02 -1.23713538e-02
 -4.29892130e-02  2.68546343e-02  6.50649071e-02  5.60643524e-02
  5.09401113e-02 -5.96325099e-03  1.67776495e-02 -1.88738033e-02
  5.40260971e-02 -4.87303548e-02  2.30016485e-02 -8.51709396e-03
  2.79990956e-02  6.79191649e-02 -6.95334673e-02 -5.13318777e-02
 -9.07638669e-03 -3.05903666e-02  5.09914458e-02 -2.88169011e-02
 -7.41295740e-02  7.34272450e-02 -3.15415598e-02 -5.42205945e-02
 -6.02989830e-02 -7.12218136e-02 -6.83979839e-02  4.86801565e-03
  7.01189190e-02 -4.00984772e-02 -5.51580936e-02 -5.05810156e-02][ 0.03177969  0.07304682  0.07091019  0.06833276 -0.04041673  0.06534159
 -0.01223137 -0.0706877  -0.00698286  0.07242949 -0.07269607  0.02581358
  0.00765445  0.00895135 -0.05342395 -0.02661677  0.07193089 -0.00142878
  0.03465813 -0.00890657  0.07317521 -0.06973133 -0.00836441  0.03055383
  0.04137369 -0.03715069 -0.00790126 -0.02934742  0.07083464 -0.04013367
 -0.03961336 -0.06263571  0.06361367  0.06168298  0.03714474 -0.01855653
 -0.05956948  0.0023271  -0.05784669  0.06661981 -0.02078493 -0.05744546
 -0.03968504  0.06399453  0.05839871  0.06186822  0.03152754  0.05177756
 -0.05231842  0.01085147 -0.0398508  -0.06554069 -0.05217968 -0.0644719
  0.03705575 -0.03742673  0.05095173  0.0631659  -0.00863635 -0.06432831
 -0.07150372 -0.02126253  0.04995269  0.0543336  -0.07145175 -0.0576937
  0.03753019 -0.01248085 -0.03898823 -0.00480279 -0.01960177  0.00014742
  0.00101437  0.0104944   0.04190641  0.07159872  0.0216962  -0.07406751
  0.00600192  0.00621972 -0.05824272 -0.06545896  0.01581603 -0.05025129
  0.02479444  0.01752067  0.01808833 -0.00844903 -0.06691233 -0.02597845
 -0.00643226 -0.02654651 -0.02180474 -0.0667116   0.00407965 -0.07329059
  0.05255796 -0.0320547  -0.04095858 -0.00257961 -0.02351474  0.07245553
  0.07078029 -0.06598701  0.01532105 -0.02744688 -0.0611099  -0.04793064
  0.06891014  0.01269461 -0.01357368 -0.06746028  0.06733845  0.05718379
 -0.01056404  0.03290883 -0.04871279  0.00442278  0.03767172 -0.06015302
 -0.06619848  0.04790627  0.00098454  0.04703488  0.01072296 -0.04295617
  0.01267646 -0.05194422  0.05429541 -0.02742393 -0.06463294  0.03491553
  0.0682496  -0.0639533  -0.01452313  0.02696826  0.06983516 -0.05293197
 -0.01441037 -0.02102127 -0.03972183 -0.0496311  -0.03350679 -0.0107761
 -0.02947316  0.05141418 -0.00631608 -0.07080948  0.05757277 -0.04345428
  0.06271498  0.01083327  0.01897234  0.02976099  0.05087435  0.02486769
 -0.05935726  0.02872023 -0.05931235  0.0295033   0.06677349  0.04479315
 -0.03088143 -0.05483729  0.0601176  -0.03222727  0.00090571 -0.00346846
 -0.07200324 -0.01683558  0.00782358  0.0150651   0.0384986  -0.00604107
  0.00830525  0.07019067  0.07397652  0.03701035  0.02839199  0.06814142
  0.00514983 -0.05147506  0.06945387 -0.05668809 -0.06644013  0.05008159
 -0.03774972 -0.04166922 -0.02974847  0.00768987 -0.0133963   0.05633257
 -0.0056543  -0.03791912  0.04395077  0.00734131 -0.03611585 -0.02849978
 -0.01504436  0.04296514 -0.07295553 -0.04620968  0.07001236 -0.06002593
 -0.05928253  0.05202159  0.01775678 -0.03416589 -0.00105499 -0.06363608
  0.00895785 -0.04670299 -0.03842853 -0.02111775  0.04066896  0.00444067
  0.06390809  0.04935008 -0.05457606 -0.01562389 -0.01625981  0.00865708
  0.00960595  0.04778134 -0.00542536 -0.02924277 -0.05105712  0.04349323
  0.05089667 -0.01914502  0.04702275  0.02493181 -0.03136425  0.06922536
 -0.02628361  0.06125383  0.04640735  0.0517498   0.03484896 -0.02972247
 -0.02013129  0.02192846  0.05337591  0.06953035 -0.00697955 -0.05696659
  0.0109547   0.03604456  0.01217362  0.03953113  0.06098874  0.06068641
 -0.06831367 -0.07179882  0.04940386 -0.00426187  0.05964886  0.04512453
 -0.07159761  0.02443606 -0.02314763  0.03523243  0.05228058 -0.03302088
  0.01267419 -0.04321931 -0.05707481  0.05677366 -0.00741229 -0.04655353
 -0.03931712  0.05157305  0.06435727  0.02284089  0.00726999  0.034139
  0.05065741  0.04329324 -0.05295987  0.01984279  0.01001596 -0.02112472
 -0.02524948  0.00117338  0.02925389 -0.00199138 -0.04991578 -0.06627561
 -0.03494146  0.00991711  0.0325816   0.05450326 -0.03982469  0.04561935
 -0.04602838 -0.00430675 -0.02086607 -0.04477212 -0.04160187  0.07311623][-0.03956998 -0.03939941  0.04538217  0.05790046 -0.03838354 -0.01499014
  0.06221364  0.01673854  0.07048751  0.01135063  0.01817965  0.03882562
 -0.02889956  0.00788671 -0.06881152  0.00882567 -0.0226945   0.04188886
  0.05023417 -0.02839862 -0.03804145 -0.00440296 -0.00600501 -0.02430381
 -0.00834633 -0.01124718 -0.04574531  0.01256633 -0.002442    0.03680585
  0.04134984 -0.01518084 -0.03351243 -0.03004184  0.01026201  0.01070309
 -0.01285223  0.05552548  0.0584462   0.04741674  0.0254753   0.01801756
  0.02857247 -0.06684496 -0.0522159  -0.0585915   0.05729268  0.0267799
  0.07136625  0.01665583  0.05495243  0.04241962  0.02683574  0.03432596
 -0.01302569  0.06170082  0.01301678 -0.02804615 -0.07260529  0.04912572
 -0.00696874 -0.07017977 -0.05026771 -0.01562325 -0.0439726  -0.05166299
 -0.00826932  0.03665501 -0.03342656 -0.01845641  0.04721352 -0.04047716
  0.07298891  0.00665884  0.03590764 -0.07010616 -0.05531447 -0.00922085
 -0.01811408  0.02846804  0.02494737  0.03884538 -0.02394188 -0.0221276
 -0.01817022  0.04105127  0.07024024 -0.03491509 -0.05061692  0.07351542
 -0.02982175  0.01722591  0.05083002 -0.02483051  0.05079865 -0.01545703
  0.05716325  0.06801806 -0.0433834  -0.01553309  0.04329614  0.05271947
  0.06504278 -0.03500443  0.02317616  0.02664242 -0.00163401 -0.01685639
  0.00639414  0.01308353 -0.00611268  0.05066286 -0.07150629 -0.00677137
  0.06686048 -0.0637909  -0.05669263 -0.0625143   0.0698657   0.05897383
  0.04681303 -0.06535576  0.04303487  0.06471546 -0.0121027  -0.06354265
  0.02234983 -0.01018527  0.03589532  0.07098711  0.03469987  0.05023511
 -0.01119903  0.02737148  0.04680741 -0.05903555  0.02110338  0.0578412
 -0.05801816 -0.04072196 -0.0333089  -0.0539356   0.0057371   0.07091248
  0.05429259 -0.0609748  -0.06372462 -0.07023667 -0.02694334  0.02013642
  0.05594759  0.03512298 -0.05442658  0.03940819  0.06478339  0.06303613
 -0.0594965   0.01745114  0.05960909 -0.0556412  -0.07221958 -0.03807416
  0.03234675  0.0498931   0.07244204 -0.00354344  0.04411089  0.05492637
  0.01896638 -0.0553376   0.0030022   0.04397223  0.05890942 -0.0360828
  0.01193823 -0.03678152  0.03394794 -0.04618994 -0.06401116  0.06839615
 -0.0271673   0.0029903   0.04298013 -0.04950314 -0.0696858   0.05652615
 -0.05983439  0.05059908  0.04639128  0.04944152  0.00387327  0.06733176
 -0.05250987 -0.05448592  0.04971886 -0.06002483  0.06698382 -0.01295583
 -0.03740557  0.04977327 -0.00206777 -0.02866834 -0.00654117 -0.02187925
  0.00395808  0.02892639  0.06070831 -0.02910221 -0.04116042  0.03228839
 -0.02783999 -0.05945211 -0.05011499 -0.06885917  0.02468338  0.00554784
  0.02826601 -0.00367165 -0.01063731 -0.00575723  0.00552378  0.07059279
 -0.04100446  0.04070941 -0.06381048 -0.06470313  0.02754392 -0.00333917
 -0.03683279 -0.02099298 -0.04887228 -0.04860298 -0.02648785  0.0542013
  0.06204106 -0.02019463 -0.00571612  0.03806134 -0.03132136 -0.00134167
  0.00989485  0.01045533  0.0727025  -0.01948312  0.06163807  0.07435831
 -0.02145218 -0.02364935  0.02175924 -0.01175213 -0.06295198 -0.00977498
  0.05276978  0.06842636 -0.01770181 -0.02141267  0.07256235 -0.02745568
  0.04651351 -0.0076305  -0.04396909 -0.03741585  0.02796116  0.05872643
 -0.03599834 -0.0442806  -0.03412893  0.03845077 -0.05884781 -0.02454362
 -0.07084291 -0.01451893  0.06346151  0.06733857 -0.02560181 -0.03884482
  0.00189935 -0.054154    0.01469308 -0.07081618 -0.00167557 -0.0443092
  0.02664417  0.03738175 -0.0599595  -0.03584247 -0.0612467  -0.05948996
 -0.0446744   0.06186545 -0.02618599  0.03745234 -0.00396933 -0.06379733
  0.0194116  -0.05408131  0.04999927  0.03807652 -0.02839683  0.021583  ][-0.07411842 -0.06294231  0.06527777 -0.03629632  0.03615344 -0.00411107
 -0.01857618 -0.04822506  0.02596051  0.07389285  0.04336829 -0.06759103
 -0.00674798  0.0390401  -0.04939418  0.00220955 -0.05289543 -0.03780181
 -0.07350685 -0.03366423  0.06986883  0.04088304 -0.0378709  -0.01093571
  0.04622105 -0.05367047  0.02748346  0.05294764  0.01240013  0.05250554
 -0.05865387  0.07397549 -0.01014302  0.07045868  0.0205313  -0.01460382
  0.03898317 -0.06857917 -0.07431676  0.05093342 -0.00399579 -0.05558557
  0.02103599 -0.04614364 -0.03897716 -0.00910927  0.07247461  0.03308488
 -0.01958279  0.03882185  0.04708514 -0.01691015  0.00096453  0.02771756
  0.04868876 -0.00623145  0.03443824 -0.02844588 -0.05992826 -0.00335194
  0.01116566 -0.03393085  0.00933206  0.02101134  0.03487351  0.01469425
 -0.06502403 -0.03065674 -0.04615586 -0.05229852  0.07197323  0.05272116
  0.06746939 -0.00635551 -0.01644831  0.05358261  0.00565244  0.01218385
 -0.00171591  0.04048751  0.04211979 -0.06222622 -0.01536847 -0.06785465
  0.00788109  0.05758128 -0.04300867 -0.0600926  -0.029418   -0.06999332
 -0.03586205  0.06709918 -0.01915183 -0.0495138  -0.05702642  0.03262268
 -0.02895252 -0.00123342  0.03712561  0.01076475 -0.04941628  0.01123489
 -0.04625154 -0.01211691  0.02896824 -0.04027486  0.01490157  0.01042725
 -0.03073977 -0.05433747 -0.04406315  0.06215477  0.01337005  0.00816977
 -0.00423793  0.04828244 -0.06065757 -0.0113875   0.00573976  0.01388147
  0.02439998  0.00061862 -0.06545456  0.00092265 -0.00032845 -0.06467516
  0.01228925 -0.00973872 -0.02361307  0.04435675 -0.06486011 -0.06031564
 -0.02818007 -0.01733049  0.00458146 -0.00524022  0.02521608  0.06214343
 -0.02698935 -0.043202    0.0553866   0.01961134  0.00077365  0.02678861
  0.03160701  0.02766427  0.01805886  0.01685695  0.04536229 -0.01559627
  0.00107589 -0.03062189 -0.05417511 -0.02907754 -0.05347823 -0.00348341
 -0.02850509  0.04210344  0.07344398  0.03936865  0.01071066 -0.04860184
  0.04610022  0.03123789  0.06981763 -0.01719508 -0.03240935  0.01992699
 -0.055698   -0.02288928  0.06093304 -0.05665506 -0.05779051  0.00714617
 -0.05259306  0.02226838  0.03257319 -0.03071274  0.06458791 -0.0082875
 -0.01754621 -0.01604912 -0.06933654 -0.02261443 -0.0032979  -0.03907268
  0.06119774  0.04123132 -0.00313098  0.04226597  0.070444   -0.02265422
  0.06306165 -0.05129793 -0.06754796 -0.01618905  0.06554694  0.06216882
  0.00964092 -0.01768922  0.05180241  0.04217415  0.01002962  0.00384766
 -0.00542871  0.04910881  0.03050324 -0.06720854 -0.02924025 -0.00132918
  0.01757009  0.06227784 -0.01509608  0.00650658 -0.0633111   0.02067155
 -0.05276401  0.02467564  0.06733586 -0.02090671  0.02557634 -0.02507377
  0.01331412 -0.03340302  0.01227462  0.00077488 -0.02928599  0.00025931
 -0.03631682  0.04735633  0.06448315 -0.0226302   0.01706183  0.05673707
 -0.0680655   0.00767804  0.07117057  0.05293623  0.05753683  0.02817848
  0.06208299 -0.02222253 -0.06053381 -0.0160399   0.05728982 -0.0097741
  0.01933419 -0.06440187  0.0694823  -0.04663706 -0.03019329  0.03497583
  0.02405497 -0.03989561  0.0392378   0.03797864 -0.0640902   0.05698133
 -0.00937986  0.03883783 -0.02298163  0.00288937 -0.02248134  0.02297999
  0.02952109 -0.00211091 -0.06384592 -0.03931601  0.02820771 -0.03487572
  0.00245364  0.04688044 -0.06514385  0.00989997  0.03507583  0.05965275
 -0.06358065  0.05268881 -0.03626689 -0.00321329  0.04218438  0.07128939
  0.0400022  -0.0007358  -0.05284126  0.07147661 -0.05201943 -0.02946832
  0.06252623  0.06498754 -0.03585727  0.05382726  0.03766683 -0.01655696
  0.07049879  0.06526397  0.07003359  0.00841661 -0.06791913 -0.07053629][ 4.89233434e-02  6.70051277e-02 -3.59466672e-03 -2.00060643e-02
 -5.94681054e-02 -6.88306987e-03 -5.76487333e-02  4.38798815e-02
 -4.84573096e-03  3.12738940e-02 -5.27476966e-02 -3.13410833e-02
 -5.66384196e-02 -5.19277826e-02  4.17296141e-02  2.75605172e-03
  6.07346594e-02  4.45737690e-02  9.86777991e-03 -4.98641580e-02
 -6.68069869e-02  6.31726533e-02  6.12192154e-02 -6.34393990e-02
  4.24824059e-02  6.45966381e-02 -6.44618124e-02  6.17214292e-02
 -3.08339261e-02 -4.74427789e-02  4.84388471e-02 -5.63662350e-02
  3.09916288e-02  6.39026016e-02 -2.31866576e-02  4.19855118e-03
 -6.47088066e-02  4.17545512e-02  3.92291620e-02  4.87993360e-02
 -3.89925726e-02 -2.08853632e-02  3.45880166e-02 -1.33781359e-02
 -3.68728638e-02 -3.04195695e-02  1.31178349e-02 -2.04291940e-03
 -3.08391228e-02  4.38149646e-02 -7.15007409e-02 -4.55722213e-04
 -3.99460010e-02  6.67273998e-05 -6.44607991e-02  1.60275027e-02
  5.96838444e-02  3.24033871e-02  1.50740519e-02 -1.54181682e-02
 -5.22240549e-02  4.99521345e-02 -6.05475269e-02 -3.73850092e-02
 -2.01013535e-02  6.21133149e-02 -2.23869085e-02 -6.31313026e-03
 -2.72537693e-02 -1.64711922e-02  5.40982038e-02 -4.05256376e-02
  8.80239159e-03 -1.62362568e-02  1.52532756e-03  7.36106187e-02
  4.14602086e-02  4.89895046e-03  5.45503050e-02  6.77499175e-03
 -7.34757259e-02  5.47964871e-03  5.05453795e-02  1.83296800e-02
  3.77357081e-02  2.62062624e-02 -2.25371495e-02  3.58298421e-02
  2.80731842e-02  4.26107571e-02  6.33865297e-02 -3.31181884e-02
  4.19890508e-02 -5.59910461e-02  7.25778639e-02  4.94346023e-02
  1.69731230e-02 -3.87027860e-03 -2.14595050e-02 -2.84545869e-02
 -5.24541512e-02  4.82698232e-02 -3.14180851e-02  5.50417006e-02
 -3.63356210e-02  6.41029477e-02  4.93490472e-02  8.22976232e-03
 -1.91052817e-02  3.34966257e-02  4.37743813e-02 -3.10136974e-02
 -1.25482902e-02 -5.10213226e-02 -6.47978485e-02 -3.03973258e-03
 -4.28815819e-02  8.70712101e-03 -1.22652836e-02 -6.23258352e-02
  4.98649925e-02 -6.06679991e-02  1.82244554e-02  5.69952577e-02
  9.28475708e-03 -1.80956274e-02  3.67673039e-02  6.94387704e-02
  4.03385013e-02  2.90771127e-02  7.33503699e-02  5.05097285e-02
 -1.96265802e-02 -5.33413962e-02 -4.43936959e-02  1.65300816e-03
  4.38502431e-02 -3.34225856e-02 -2.76545398e-02  6.01013303e-02
  5.79036474e-02 -6.65986016e-02  4.99819219e-03 -6.49870411e-02
 -3.30700837e-02  1.37556344e-02  3.54105756e-02 -6.39340580e-02
 -4.38874774e-02 -2.50425488e-02 -7.36748874e-02 -5.21338955e-02
 -2.01446153e-02 -2.11586356e-02  3.97952646e-02  3.91714796e-02
 -4.09834832e-03  5.68957776e-02 -6.13015965e-02 -5.59717119e-02
 -1.34662427e-02 -5.44172525e-02 -6.29938617e-02 -3.07580419e-02
  4.50830981e-02 -2.91043408e-02 -1.09030530e-02  2.15221345e-02
  9.27033275e-03  1.38663575e-02 -7.10904077e-02  2.72990540e-02
  6.75071478e-02  2.54990533e-02 -1.19632259e-02 -3.70616131e-02
  7.20068663e-02  6.11175001e-02  6.10996485e-02 -8.47071409e-04
  6.30951375e-02  1.54923648e-02  5.61413765e-02 -2.91116126e-02
 -3.53074297e-02 -1.20088272e-02 -7.65333325e-03 -1.49198249e-02
 -2.96925828e-02 -4.27980535e-02 -5.79360873e-03  8.69130343e-03
 -3.96266505e-02  2.74892896e-02 -5.91579080e-02  6.18234873e-02
 -6.79220036e-02 -2.66473666e-02  7.29068965e-02 -1.24341659e-02
  2.98270509e-02 -6.70990199e-02  4.27709520e-03  1.38158575e-02
 -8.43312591e-03 -5.35656959e-02  4.84194309e-02  2.68496573e-04
 -1.58058293e-02 -3.21715176e-02  6.78947568e-02  4.25985456e-03
  5.72084039e-02 -2.97721364e-02  3.07836011e-02  9.65776294e-03
 -2.65266784e-02 -5.06327748e-02  6.35096431e-02  5.44117540e-02
  2.30951086e-02  2.06028372e-02 -5.21921813e-02 -2.54873447e-02
  6.53949976e-02 -8.07207078e-03  6.46600127e-02 -6.28685430e-02
  1.29357874e-02 -3.75795960e-02  1.01712421e-02  2.45283321e-02
 -2.62690000e-02  1.78584382e-02 -4.24468070e-02  7.87830353e-03
 -4.36319113e-02  1.54260620e-02 -6.04561046e-02 -2.83948816e-02
 -6.44216165e-02  6.76317364e-02 -6.60545975e-02  5.46116084e-02
 -4.70467508e-02 -4.04241271e-02 -4.44505811e-02  6.61489218e-02
 -5.86429052e-02 -4.71138135e-02  4.36655432e-02  2.54979506e-02
 -3.44813429e-02 -1.46501362e-02  3.15263867e-03 -3.34228352e-02
  4.83261421e-02  3.15534249e-02  2.13185921e-02  6.44345284e-02
 -2.15230063e-02 -6.69150054e-02  5.55088073e-02 -2.84287781e-02
 -7.18223825e-02  1.23368874e-02 -3.73386443e-02 -6.56085759e-02
 -3.06015946e-02  7.18314648e-02  1.91693008e-02 -4.98647429e-02
 -5.27133346e-02 -6.08231537e-02  5.92158139e-02  1.82727575e-02
 -6.81690946e-02 -4.25873101e-02  4.75586280e-02 -4.28615920e-02
 -1.09016299e-02 -7.09799752e-02  2.26201415e-02  2.34802738e-02
  6.73600286e-03 -2.55103670e-02 -2.31109709e-02 -4.16916721e-02
 -6.33805469e-02  6.75968826e-02  6.01149201e-02 -1.42062642e-02
  1.08708367e-02  5.56455404e-02 -1.24723911e-02 -6.27224371e-02
  3.79955843e-02  3.55437845e-02 -1.86698884e-02  3.21292505e-02][-4.90470305e-02  5.84700853e-02 -5.91461994e-02 -1.50336288e-02
 -6.67240769e-02  5.64735830e-02  6.78728372e-02  7.19582289e-02
  8.69151205e-03  3.17605287e-02  3.21180001e-02  2.22757980e-02
  1.44909322e-03  6.31386787e-02 -7.35995919e-02 -3.16464417e-02
 -5.01105562e-02  1.47040933e-02 -1.06740519e-02  3.66631672e-02
 -3.97287495e-02 -6.19657561e-02  4.90799174e-02  5.71458340e-02
  5.79123199e-02 -2.72556655e-02 -5.65464869e-02  7.12790340e-03
 -3.79271060e-03 -7.20195323e-02 -6.36473596e-02 -2.94739790e-02
 -2.31032521e-02  9.43992287e-03  5.77243716e-02  1.66931674e-02
 -5.29410392e-02  4.38795984e-02  1.98743939e-02  5.75090796e-02
  7.23736137e-02 -2.30712555e-02 -1.19894594e-02  1.49535611e-02
  4.64170203e-02  2.10483372e-02  2.48160735e-02 -4.68577519e-02
 -2.10026316e-02  6.25407100e-02 -1.09631121e-02 -3.39533389e-02
  4.08933982e-02  5.17843515e-02 -3.09016816e-02 -3.64247896e-02
 -3.58069800e-02  5.53528517e-02 -6.09363914e-02  3.94618288e-02
  4.75616604e-02 -3.69774103e-02 -2.26786248e-02 -7.22509772e-02
 -3.25591788e-02  1.12098455e-02  4.30139601e-02  4.64813188e-02
  5.43420315e-02  5.97786456e-02 -1.24920793e-02 -2.42831931e-02
 -9.39051062e-03 -2.15862580e-02  6.93086535e-02  1.65636241e-02
  2.80230790e-02  6.58588409e-02  3.83507311e-02 -5.70605472e-02
 -5.65783791e-02 -7.41524249e-03  2.82489657e-02 -7.25617260e-02
  8.88129324e-03  3.12976837e-02 -5.22086769e-02  2.44917870e-02
 -2.11678408e-02 -5.98656982e-02  6.62508309e-02  4.69423458e-02
 -4.66792546e-02  2.18735561e-02  4.47042733e-02  7.17765838e-02
  2.72277445e-02 -7.59626925e-03 -6.59926236e-03 -8.85138661e-03
 -7.34874532e-02  5.30150980e-02  3.13585997e-03 -1.69628523e-02
 -3.59885283e-02 -5.96665926e-02  6.74760044e-02 -6.71175346e-02
 -5.09607643e-02  3.77533883e-02  1.17259100e-02 -6.26548007e-02
  1.79443434e-02  7.29114115e-02 -1.14357173e-02 -5.36457077e-02
 -6.18754886e-02  5.96760362e-02  2.21924335e-02 -6.40201867e-02
  5.85431159e-02  4.34342027e-02  3.76490057e-02  4.73455638e-02
 -5.41744232e-02  3.85418534e-05 -2.25345083e-02  7.06161559e-02
  6.03243113e-02  7.13822991e-02 -7.40461946e-02 -2.11151242e-02
 -1.32079236e-02  6.69834763e-02 -4.34552208e-02  4.33773547e-02
  5.53409308e-02 -5.56093082e-02 -4.48058918e-02  5.44062406e-02
 -5.16712368e-02  5.85178584e-02 -2.62043625e-02 -6.35919645e-02
  2.19880715e-02 -4.33688909e-02 -2.22601034e-02  4.35388908e-02
 -1.83713064e-02 -4.86914739e-02 -5.81818633e-02 -1.80529058e-03
 -2.06145979e-02 -4.90031987e-02 -4.29188833e-02  6.91155940e-02
  8.65355134e-03 -6.72397316e-02  3.62473950e-02  3.54109257e-02
  5.17367423e-02 -2.20260322e-02 -6.35459125e-02 -3.19809243e-02
 -4.33366001e-03  3.21232155e-02  6.29466027e-02  2.24786848e-02
  3.27721238e-03 -6.66731000e-02  3.47910449e-02 -1.80124529e-02
  7.11520016e-02  3.83418947e-02  7.13604540e-02  6.61895275e-02
 -4.93657440e-02 -6.74548596e-02  2.86101103e-02 -5.94894812e-02
 -3.62801552e-03 -4.50077653e-02 -5.99811375e-02 -5.31829819e-02
 -6.23100102e-02 -3.36024500e-02  1.89524740e-02  7.41273761e-02
 -4.62564565e-02  6.24592602e-03 -7.02144951e-02  6.62911832e-02
  4.43184897e-02 -9.58997011e-03  5.22870272e-02 -6.27810955e-02
  6.06780350e-02 -5.99688105e-02  6.71233982e-02  5.15627414e-02
  5.55853248e-02 -5.86339682e-02 -6.32482916e-02  5.97769469e-02
 -5.17354831e-02  6.75211698e-02 -3.16584855e-03 -3.32972147e-02
 -1.59615129e-02 -7.28260949e-02 -1.97452456e-02 -1.62495784e-02
 -1.08790696e-02 -4.05102260e-02 -5.22086769e-03 -7.72289932e-03
  7.29531795e-02  5.06277084e-02 -4.66346815e-02 -5.19276559e-02
 -4.70159203e-02 -8.79015028e-03  1.87103525e-02 -6.36776537e-03
  3.77072692e-02  1.67803466e-02  2.64333040e-02  4.43446860e-02
 -4.25793976e-02 -2.34703012e-02 -1.09431893e-03  1.37801468e-02
  1.78105459e-02 -4.50344384e-03  5.83209693e-02  4.75274250e-02
 -2.10357830e-02 -7.18183368e-02 -6.18664250e-02  2.72774845e-02
  5.16404212e-03  4.29778099e-02  4.42965627e-02  4.34134528e-02
  6.27654493e-02  2.17747763e-02  7.36107826e-02 -1.87554397e-02
  5.73449731e-02 -3.98899838e-02 -7.10874498e-02 -2.80295163e-02
  4.62942198e-02  2.30655968e-02  1.86633095e-02  3.72671410e-02
  6.04076385e-02  2.85967588e-02 -3.40166278e-02  2.57976130e-02
 -7.18179643e-02  6.99498951e-02 -5.66278696e-02 -2.88586356e-02
 -4.64915186e-02 -6.58363998e-02 -7.38960579e-02  6.02162927e-02
 -1.72110759e-02 -6.29707277e-02  2.59100571e-02 -6.67867959e-02
  5.46980798e-02  1.35582983e-02  4.76853549e-03 -4.94197011e-05
  5.85024953e-02 -1.98370963e-03 -4.76467498e-02  7.03732371e-02
  7.06878603e-02 -1.14492327e-02  1.23085082e-03 -2.09740549e-02
 -5.36258221e-02 -7.61774927e-03  2.47168988e-02  2.79605016e-02
  6.10358119e-02 -1.44563615e-03 -3.45178694e-03  3.79979610e-04
 -4.91056703e-02  2.73253024e-02  1.14421025e-02  6.55521154e-02
  5.78330457e-03 -3.11195925e-02 -2.50016451e-02 -6.75783530e-02][ 0.0176556  -0.00249352 -0.01282622 -0.0067276   0.07083206 -0.03342718
 -0.032363    0.05271105 -0.00670759 -0.04038171 -0.04189871  0.01455655
 -0.00768741 -0.0344243  -0.06296005 -0.04294033 -0.05253225  0.02008445
  0.02097778 -0.04401237 -0.04806238 -0.0209607   0.0299979  -0.00529534
  0.04966966 -0.04103979 -0.03694034  0.05881521 -0.02017571  0.06344706
  0.00592684  0.06637335 -0.01133257  0.04144213  0.00556573  0.0691822
 -0.02653858 -0.05670205 -0.0155321   0.00020941 -0.02675665 -0.06046822
 -0.07185365 -0.05381668  0.0093869   0.06566453 -0.026606   -0.06871146
  0.01164485  0.04606012  0.01943056  0.046059   -0.05756437  0.00263429
  0.04801754 -0.01827581 -0.02741313 -0.03040307  0.06667143  0.01392958
  0.05354775  0.02339902  0.035727    0.04239865 -0.03789169 -0.03811618
  0.0033601   0.02008817 -0.02209881 -0.02343861 -0.03354755 -0.00742543
  0.03362549  0.05884667  0.01968781 -0.01353382  0.07140099 -0.05021734
 -0.06045093  0.03110675  0.04732496 -0.04671519 -0.02860816 -0.02943441
  0.03586663 -0.06123903  0.05166262 -0.04791212 -0.00141234  0.02850839
  0.02558235  0.04077211  0.01871576 -0.06848901 -0.0138939   0.03502063
 -0.0694454   0.04690769 -0.01672444  0.06782223  0.05618884  0.00431728
  0.05263969 -0.02066398  0.01749655 -0.03286205  0.02005321 -0.05136416
 -0.03073349 -0.07028375  0.06696504 -0.02020226  0.03981121 -0.05883533
  0.06705992 -0.02299972  0.0635116   0.04306307 -0.04834773  0.04212293
  0.02006123 -0.01473707 -0.0543929  -0.03260294 -0.06342798  0.03719451
 -0.07316398 -0.03372032  0.0200367  -0.0697959   0.05586563  0.02682611
 -0.01396863 -0.04592041  0.06400403  0.00096606 -0.06027748 -0.02116523
  0.06816411 -0.06141853  0.01582674  0.00918365  0.03483251  0.03696595
  0.06627895 -0.00256935 -0.03964361  0.04118712  0.02670816  0.02328642
 -0.04991661 -0.02813105  0.06249619  0.03366546  0.00100249  0.06728801
  0.05132845 -0.01856181 -0.06513306  0.06352527 -0.00665269 -0.03786289
  0.01743965  0.06970166  0.01023029 -0.00060644  0.01325894  0.04045015
 -0.02015648  0.004458    0.04540028 -0.06501236  0.03605144  0.01307775
 -0.06828951 -0.04963004  0.00827453  0.00348733  0.02623462 -0.021965
 -0.03143155  0.01318856 -0.07088286  0.01282454  0.03680699 -0.0098051
 -0.03991113 -0.07268114  0.06263806 -0.04764831  0.02826479 -0.00364332
  0.06269437  0.00706834  0.01849192 -0.01140211  0.06566006  0.0726359
 -0.05915473  0.03690041 -0.051022   -0.03685655 -0.01423081 -0.06124161
 -0.01447107  0.04645677  0.02845242  0.07084998 -0.0039854  -0.05004716
 -0.02842551 -0.05131788 -0.06274537  0.01931826 -0.01047271  0.0057274
 -0.06412089 -0.02468322 -0.04907545  0.04356772  0.04629853 -0.04412676
 -0.01013096 -0.01218269 -0.07250069  0.07299241  0.0483083   0.05388382
 -0.06979921 -0.00554097  0.03207231  0.05202661  0.00705653 -0.02227717
 -0.04647674 -0.02799423 -0.02877158 -0.04483395  0.00916178  0.00906798
 -0.0178895   0.05407315 -0.07011773 -0.03027793 -0.01242679 -0.05199625
 -0.0653975   0.00247686 -0.02443843  0.03822364  0.05139692  0.0008116
 -0.01182262 -0.07163471 -0.06989589  0.06380574 -0.06253009  0.02887432
  0.06403576  0.05895889  0.06887211 -0.0135375  -0.01089076 -0.06383123
  0.06010428  0.06835523 -0.01127737 -0.03607397 -0.0550231   0.06947304
 -0.06562921  0.03311869 -0.04422113 -0.05305048  0.03665975 -0.05145961
  0.02950697  0.0054659   0.04260079 -0.01353849 -0.02169362  0.06270429
 -0.04551147  0.07105628  0.00479697  0.00342092  0.04302258  0.02879436
  0.07063358 -0.00060832  0.0131783  -0.05132475 -0.06041325 -0.07304473
 -0.05799489  0.04927601 -0.0025147   0.01635993 -0.0381327   0.01294044][-0.06766371 -0.05240943  0.06975906 -0.06313975 -0.04808065 -0.02014176
 -0.0199123   0.04283142  0.05592003  0.03491766 -0.00581262 -0.05729286
  0.01082715 -0.06723236 -0.03707822  0.07038277  0.0714757   0.02613024
  0.06937218 -0.01546645  0.02237032  0.0739543   0.06187181  0.00713582
 -0.01638295  0.00297873 -0.01634827  0.03795725 -0.05027938  0.02910592
 -0.04850416 -0.01583336 -0.06773005  0.0383964  -0.00998381 -0.07062373
 -0.03856756 -0.02694238 -0.07288729 -0.01617611  0.02297598 -0.05004617
  0.07275046 -0.02288752 -0.01192557 -0.00455692  0.03314541  0.04811689
 -0.02897058  0.066029   -0.02795323  0.0743095  -0.02792116 -0.0305128
  0.04997674  0.02153723  0.06024101  0.04176529  0.03561234  0.07197312
  0.05195308 -0.06163803  0.00273282 -0.06311118 -0.02382203  0.01847805
 -0.04075442  0.02509575  0.06449555 -0.00128988  0.03187205  0.03962082
  0.06544431 -0.03871975  0.05387238  0.02295152 -0.04095484 -0.05285911
 -0.07070553  0.06245175  0.02897333 -0.0588235   0.05242053  0.05211653
  0.04860259  0.03695051 -0.0411801  -0.0520035   0.05949417  0.02066226
 -0.0363055  -0.03603358  0.05963105 -0.05806094  0.02657233 -0.05423022
 -0.00629701  0.05644692 -0.03839777 -0.01598124 -0.00060499  0.0162182
 -0.06690598  0.04785675  0.0537504   0.05028383  0.06828322 -0.05901478
 -0.03792552 -0.0282199   0.06103     0.05753981  0.0092827  -0.05733965
  0.02339541 -0.00665662 -0.05985891  0.00059775 -0.03824881  0.01952274
 -0.04506394  0.07368504 -0.04641562  0.07383525  0.07275064 -0.04307861
 -0.01973663 -0.04662114  0.05056853 -0.04105646  0.05940914  0.01899567
  0.05355301 -0.02800575 -0.02477806  0.0306215  -0.07334713  0.05686036
 -0.0052702  -0.04334795 -0.0675552   0.05703121  0.03954525  0.022456
  0.04657258 -0.02784644  0.03116452  0.01508253  0.03858823 -0.04661573
 -0.01786246 -0.00789452  0.01138192  0.07372428 -0.06921644 -0.06945111
 -0.00722028 -0.04915335  0.06596531  0.060522    0.05259089  0.0408484
  0.04325072 -0.04928372  0.04735524 -0.07318772 -0.03826678  0.06713285
  0.00483552 -0.01502182 -0.03771226  0.065988    0.03726821 -0.06388808
 -0.07339026  0.05075781  0.04422971 -0.03508865 -0.04279135  0.00118963
  0.01141213 -0.05131657  0.06532291 -0.03082869  0.02978408  0.05080345
 -0.03172605 -0.04662056 -0.07021546 -0.03384812  0.04956645 -0.04091133
  0.07392058  0.027247   -0.00663843  0.04677859  0.04304755  0.00478133
 -0.03643493 -0.06124838  0.00513053 -0.0407513   0.03771663 -0.02656178
  0.00642378 -0.00329083 -0.04260645  0.02278727  0.06229259  0.00150719
 -0.0350691  -0.05323098 -0.009599    0.00481198 -0.04882988  0.06251456
  0.04294901  0.03717485 -0.03808723  0.05506225  0.06896202  0.0401587
  0.03219039 -0.0378494  -0.04255703 -0.04926912 -0.02747525 -0.00345217
 -0.0596096   0.01509064 -0.01811106 -0.02223754 -0.03784256 -0.05901276
 -0.03188732  0.02715754  0.01101092  0.06537509 -0.02789966  0.00450871
 -0.05876845  0.01814622 -0.05755036  0.03517828 -0.00588901 -0.01357701
  0.01521507 -0.02245568 -0.00391611 -0.06878369 -0.05390385  0.0734272
 -0.00030696 -0.03621687  0.04565167  0.01275538 -0.06923316  0.01410551
  0.02860275  0.02850542 -0.07085426  0.0623897   0.04583479  0.0132879
  0.01338763 -0.03112802  0.00756275 -0.05705826  0.03816645 -0.02360775
  0.00070875 -0.06096483 -0.00823286 -0.05778278  0.04369438  0.00121969
  0.01835456 -0.00948157 -0.02235702  0.02003308  0.03700052 -0.05485504
 -0.02599562 -0.06836623  0.02009051 -0.01535832 -0.04071927  0.01157189
  0.04829076 -0.07307911  0.04601939  0.03946365 -0.02867532  0.05163245
  0.03974567 -0.05849371 -0.06221222  0.04116468 -0.06952201 -0.01100086][-4.6272546e-02 -6.7840517e-04  4.1813374e-02  6.5568924e-02
  7.2259441e-02 -7.4078813e-03  3.1335585e-02 -2.3057472e-02
  5.3064510e-02 -2.8386049e-02 -6.1433621e-02 -2.2546764e-02
  2.6151076e-02 -5.7363227e-02  9.0047643e-03 -3.0298080e-02
 -4.4589184e-02  3.6162585e-02  2.7723759e-03  1.1103131e-02
  2.2240132e-02 -1.3058979e-02  1.6039439e-02  8.6286291e-03
  4.6654798e-02  7.3414132e-02  1.8038884e-02 -2.1271463e-02
  7.0155546e-02 -4.6819173e-02  2.1517947e-02 -4.6465725e-02
  2.0581052e-02 -2.5085282e-02  5.4523349e-03 -5.1490098e-02
  4.1251987e-02  3.5287686e-02  3.2098204e-02  4.6107993e-02
  7.4004993e-02 -3.0733917e-02 -1.6521499e-02  2.4200976e-03
  3.3111446e-02  7.1631700e-02 -1.9103687e-02  2.3150131e-02
 -3.1429529e-04  4.6286628e-02  2.4879113e-02  5.6899086e-02
  3.4879595e-02 -4.8995733e-02 -4.1426420e-02  6.8463877e-02
 -3.8103197e-02  1.6061112e-02  4.2339548e-02  8.8397488e-03
 -9.4642639e-03 -3.4772508e-02  3.8929284e-03  3.0220993e-02
  2.3768760e-02 -2.1553412e-03 -5.8320485e-02  5.3129956e-02
  3.3329800e-03 -3.9309781e-02  4.3714054e-02  1.8100023e-02
 -1.3452195e-02  5.8506891e-02 -3.1211652e-02 -1.3004951e-02
 -6.1881147e-02 -2.9579874e-02 -9.8603219e-04 -5.9492372e-02
 -2.7041554e-02 -3.0037053e-02  2.2334583e-02  7.2526500e-02
 -4.5678575e-02 -4.2482231e-02 -1.9749079e-02 -4.9636953e-02
  7.2431415e-02  1.1526130e-02  2.8403714e-02  4.4192761e-02
  8.4403306e-03 -1.3994563e-02  5.0216824e-02 -5.0102625e-02
  5.0995916e-02  1.6550183e-02  3.6318451e-03 -1.1085421e-03
  5.6438148e-04 -4.8990585e-02 -4.9183380e-02  6.3695252e-02
  6.8717793e-02  4.7037929e-02  1.9107483e-02  4.4498265e-02
 -7.3834367e-02  5.7804063e-02  6.8263650e-02  4.7629967e-02
  1.2096114e-02  3.6045574e-02 -4.7452323e-02  1.2740567e-03
 -6.9668628e-02 -1.8873431e-02  4.9070232e-02  7.9371035e-03
 -2.5062401e-02  6.1506733e-02 -5.6460761e-02  4.2426199e-02
 -7.2316378e-03 -1.4240231e-02  3.1308912e-02  3.0692235e-02
 -4.5305230e-02 -2.6854951e-02 -2.4662551e-02 -6.8607450e-02
 -6.3832738e-02  5.2149162e-02  1.9047029e-02 -5.7796206e-02
  3.1034648e-03 -5.1572405e-02  2.5141187e-02 -4.2721532e-02
  1.5424117e-03  6.8474844e-02  1.2710683e-02  6.4092129e-02
 -4.3658640e-02  6.4695477e-03 -1.0350265e-02  7.3762119e-02
  7.3302910e-02  6.9985330e-02 -9.6894279e-03  3.0699186e-02
 -8.8187307e-04 -4.7762826e-02 -5.9827935e-02 -2.4374507e-02
  7.3381841e-02  5.8826327e-02 -3.9415285e-03 -6.0831882e-02
 -3.9064590e-02  6.9722161e-03 -1.9938946e-02 -4.7199950e-02
 -1.2138739e-02  1.1778735e-02 -2.8138373e-02  4.3286785e-02
  1.5158735e-02 -6.8827555e-02  6.7979693e-02  7.0034996e-02
 -7.0645027e-02 -4.7037188e-02  6.4282924e-02  7.1252376e-02
  7.0662275e-03  1.3969243e-03 -6.3295737e-02 -3.2455783e-02
  4.4142067e-02 -1.3771262e-02  6.0955048e-02 -1.7133206e-02
  5.7201311e-02  5.6066796e-02  7.6909736e-03 -5.2296124e-02
  3.3678189e-03  6.1570734e-02 -6.0255278e-02 -3.9398964e-02
 -5.0516609e-02  7.3078573e-02 -9.8701566e-03 -6.9233432e-02
  6.6443086e-02  3.9596707e-03  4.6999350e-02  1.6981617e-02
 -2.5118202e-02 -6.4541012e-02  7.0849657e-02  4.5724355e-02
 -3.0113786e-02  6.3765019e-02  1.3819665e-02  4.2009182e-02
  2.0554379e-02 -6.8965666e-02  4.2133324e-02 -6.5649621e-02
  2.9386319e-02  5.0588995e-02  1.7297320e-02 -1.1181727e-02
 -3.3595566e-02 -3.5306845e-02  4.8408039e-02 -4.0910978e-02
 -9.3136132e-03  3.7314571e-02  5.4010630e-02 -1.8797070e-02
  1.4433026e-02  1.2160167e-03 -1.8403891e-02 -6.5002277e-02
 -2.0358056e-02 -2.2023425e-02  2.2966266e-03  1.0847211e-02
 -1.0054491e-02 -4.6306495e-02 -3.0814856e-02 -7.7112690e-03
  2.1695241e-02 -2.8643794e-02  5.5641234e-02  3.5035312e-02
 -6.4341478e-02  3.2765277e-02 -3.9307997e-03  5.1802263e-02
  6.1646804e-02  7.1996942e-02  7.0626274e-02 -2.4045542e-02
 -6.6920243e-02 -2.5757618e-02 -1.9752786e-02 -6.7172684e-02
  9.2861056e-04 -7.0028007e-05 -7.1887448e-03  2.3998216e-02
 -2.9041320e-02 -4.9975038e-02 -6.3391365e-02  3.0197032e-02
  3.7197627e-02  5.8512509e-02 -4.3448661e-02  1.3643600e-02
 -2.6347063e-02  1.9796208e-02 -5.0898258e-02 -3.6971577e-02
 -6.6654332e-02 -1.0467052e-02  3.9658308e-02 -2.6224762e-02
  5.9178472e-02  4.5601346e-02 -4.1182861e-02  2.4216995e-03
  6.9637075e-03  5.6691259e-02  3.0850224e-02 -5.4475874e-02
 -7.0998065e-02 -5.0757952e-02 -7.2217472e-02 -1.4724743e-02
 -5.0389215e-02  8.8913292e-03 -6.1864171e-02  6.9068164e-02
  5.9660852e-02 -4.6725888e-02 -3.0829508e-02  3.8212836e-02
 -4.5267429e-02 -6.9298513e-02  6.4410523e-02  2.6744157e-02
 -1.2116481e-02 -3.5787523e-02 -2.8845832e-02 -1.2665201e-02][-0.0109492  -0.04762997  0.03574124 -0.01984967  0.03747918  0.05871193
 -0.01600824 -0.03046538  0.06953424  0.00307223  0.04887597  0.03584576
 -0.01497105 -0.02135384 -0.0512835  -0.01539229  0.05491094  0.03138933
  0.07208398  0.04440302  0.05936617  0.02267826  0.07195054  0.04747141
 -0.00246692  0.01264478 -0.02003932  0.0430227  -0.02020783 -0.01522149
  0.06782481 -0.05071132 -0.02435429 -0.01358251 -0.00523529 -0.02875028
 -0.01256911  0.03992712  0.07266638  0.05379948  0.00523514 -0.03490237
 -0.0426089  -0.00597563 -0.02002955  0.00636154  0.00543598 -0.05134142
 -0.02671195  0.01755939  0.06209075  0.04678526 -0.02565128 -0.04788043
 -0.06475469 -0.0214573   0.05272256 -0.04898574 -0.00452716 -0.06785674
 -0.00737682 -0.05496154  0.05012938 -0.05108999 -0.06005409  0.03112703
  0.02611995  0.06075475  0.0018209  -0.02356479 -0.01503663 -0.00958564
  0.00213626  0.04598409  0.00949715 -0.02758055  0.03803343  0.0430012
 -0.01808514 -0.01986464  0.03858405 -0.0613657  -0.05793564  0.05129154
 -0.0595357  -0.00057602 -0.01235427  0.01789613  0.02881828  0.01541884
  0.0033007   0.06282385 -0.04455348 -0.06611501  0.04399649  0.03003432
 -0.0347084  -0.07292833  0.07071419  0.06583029  0.0487929   0.07070971
  0.03945101 -0.0555512  -0.00074233  0.0690531   0.03046189 -0.0081144
  0.06409356  0.06847636 -0.05002712  0.01461211  0.03517837  0.03442033
 -0.00103112 -0.07183215  0.07368681  0.03017046  0.05958621 -0.03357003
  0.05492143  0.02101696  0.06547548  0.02370739 -0.07358675 -0.00792775
  0.06181866 -0.02087047  0.02413934  0.04431489  0.0021204   0.03207068
 -0.067548    0.00459038  0.04705065  0.03245399 -0.06624094  0.02513268
  0.0001118   0.00466041 -0.01361224 -0.01603661 -0.05740537 -0.06203314
  0.04593746  0.03742866  0.05940211 -0.03062373  0.06536239 -0.05467676
 -0.00965014 -0.00939223  0.01380131 -0.05590386  0.02417184  0.05076762
  0.02487604 -0.02403836 -0.01051849 -0.02643068 -0.06000776  0.0528319
  0.06048161 -0.0736666  -0.07372964  0.05965996 -0.02152292  0.06396842
 -0.03799001  0.05925335 -0.01211055  0.05192114 -0.06978852 -0.07183476
  0.03111874  0.01122677  0.004035   -0.0006257  -0.05904683  0.01454037
  0.04032497  0.0038742   0.01075714  0.07397081 -0.05355218  0.03309726
 -0.07091817 -0.0740232  -0.00189909 -0.03536845 -0.05338182 -0.00165388
 -0.0435606  -0.04301662 -0.05632285  0.01533741 -0.00574055 -0.05395376
 -0.05447765  0.01456464  0.03997704  0.0099741  -0.0465318  -0.02702789
 -0.00153863  0.06918854  0.07181738 -0.06809577 -0.05281774  0.06990191
  0.04500892  0.00466806 -0.0737549  -0.0599212  -0.07392486  0.0333767
 -0.01009768 -0.04175168  0.07041489 -0.06916312  0.03497325 -0.01806765
  0.07245454 -0.05957753  0.02269415  0.02244653  0.00704177 -0.04560212
 -0.05165251 -0.02555512 -0.03104646 -0.05155644 -0.01361543  0.048735
 -0.07262562  0.06690966 -0.00257848 -0.07201718  0.06340909 -0.04597091
 -0.00448088  0.05043798  0.01072541  0.02209686 -0.05175746  0.01662686
 -0.02736853 -0.04666478 -0.04394175 -0.0529973  -0.04050648  0.04036719
  0.07033937 -0.02979746 -0.03632331  0.05253743  0.01701543 -0.06304778
 -0.06650324  0.02376319  0.03443363 -0.00767165 -0.027357   -0.03829998
  0.0135699   0.03787422  0.01763829  0.06854083 -0.02059853  0.01387815
 -0.04037909  0.02468971  0.00326118  0.02698649  0.00965789 -0.01645576
  0.05989364  0.00335541  0.05577902  0.06389785 -0.04225923  0.01998501
 -0.02273862 -0.01353526  0.04927132  0.0180947  -0.07035026  0.01033732
  0.01782048  0.0159022   0.02362473 -0.06028923 -0.04865804 -0.01741249
  0.02381282  0.07435966  0.04005083  0.04491854  0.00328045 -0.05919784][-0.0287344   0.04621702 -0.00791346  0.00632851  0.02337682  0.00245941
 -0.05242162 -0.0092436  -0.00462791  0.0739097  -0.02179837 -0.03150287
  0.04008757  0.0500112   0.01968308  0.01747205  0.0238142   0.04393782
  0.0176067  -0.04565266 -0.03833622  0.06855069 -0.02738047 -0.00549944
 -0.05897026  0.05133392  0.07379904 -0.06639926 -0.02620816  0.06214575
  0.02730351  0.02579022 -0.05475576  0.05433203  0.06780857  0.04197974
 -0.0240056   0.06850359  0.00696354 -0.03544749 -0.07266748  0.04693734
 -0.01271017  0.02044071  0.06281976 -0.02956812 -0.00088967 -0.03897356
  0.05087057  0.00962646  0.03093118  0.04077262  0.04124406 -0.00902103
 -0.01917569  0.02010932  0.03963869 -0.04447797  0.07000922 -0.05577528
 -0.06117232  0.02109164 -0.01831863 -0.00424435  0.00985258  0.07152547
  0.01313343 -0.0592053  -0.07249608 -0.06435879 -0.01441891 -0.06046772
 -0.01763125 -0.00462791 -0.01370364 -0.0548344   0.04924858  0.05824383
 -0.03510266  0.07236439  0.00689231  0.07255304  0.03621422 -0.04140689
  0.05053268  0.03326197  0.023873    0.00247085  0.06126216 -0.03877388
 -0.00695842  0.03067281  0.00277574  0.00505295 -0.0122584   0.06668006
 -0.05715944 -0.06618766 -0.04997433  0.00652267  0.03758859 -0.04526369
 -0.05706656  0.05146241  0.01514612 -0.04809635  0.00077663  0.03907639
  0.0647234   0.02993302  0.02931645 -0.01496041  0.06886016 -0.02129316
 -0.05350815  0.02251459 -0.05785061  0.01488861  0.03391038 -0.00981355
  0.03002191  0.01455761  0.01232164 -0.00252264 -0.00757577  0.01963656
  0.01919548  0.03461061  0.03154457 -0.0104749   0.02882598  0.07197252
  0.00036446 -0.06831027  0.0717119   0.00780404  0.0280511  -0.02442256
 -0.07282615 -0.04668812  0.05555697 -0.04902127  0.04409425 -0.04231102
 -0.05755685 -0.02390923 -0.06797867 -0.0511311  -0.06353261  0.07332765
 -0.07043845 -0.0577919   0.03088006  0.06054994 -0.04307462  0.06441627
 -0.02516806  0.04790817 -0.04845728  0.05256674 -0.07363387  0.05860648
 -0.05448966 -0.04802714  0.0206418   0.01382474 -0.03237497 -0.01715117
  0.04881012 -0.05257206  0.03166856 -0.026648   -0.0304715  -0.03158677
  0.01849815 -0.06596965  0.0574685   0.01884888  0.07222041  0.05494036
 -0.06587788  0.02226409  0.03016622  0.03730411 -0.01494854  0.04736179
 -0.05623946  0.01999085 -0.02837801 -0.04880175 -0.06198399  0.05974847
 -0.04036609 -0.07267213 -0.05008984 -0.04163042  0.031614   -0.02668275
  0.02840987 -0.06028979  0.0259751  -0.0387347   0.01094454 -0.04614792
  0.03210589 -0.03738134  0.05748829  0.03637243  0.02264709  0.04672413
 -0.06320808  0.07072517  0.06797627 -0.05835057 -0.05013248 -0.0533378
  0.06808633  0.01750432  0.00771087  0.03353983 -0.04455988 -0.03927292
 -0.01477899  0.03261649  0.06586631 -0.03233602  0.04877777 -0.01249751
 -0.04608428  0.06437218 -0.0196175  -0.00545086  0.02974658 -0.06940427
 -0.04422592 -0.03829209  0.04345914  0.06841876 -0.04900018 -0.02209835
 -0.03765981  0.05914848 -0.01814903 -0.04245422 -0.04305101 -0.03973041
 -0.02782755 -0.0277703   0.05704868  0.070687    0.07391948  0.00372449
 -0.01736167 -0.02811207  0.0676277  -0.00684805 -0.01714174 -0.0694771
  0.04684592 -0.00581438  0.00840485 -0.03567803  0.04078899 -0.03385239
 -0.00492814 -0.04590941 -0.00583456 -0.03023483  0.01077346  0.0150318
  0.02160064  0.06123838  0.00798172 -0.00050902  0.03151527 -0.03634724
  0.03433803 -0.03023277  0.06680471 -0.00088289  0.00534388  0.03133515
 -0.05934385 -0.07240012 -0.07427178  0.04325113  0.02209096 -0.00993171
  0.04623351  0.04668149  0.00358221 -0.01567957 -0.07206787 -0.02477279
  0.04003531 -0.00528482 -0.06510285  0.0581194   0.05652872 -0.02356343][ 6.29740357e-02 -3.38525362e-02 -7.43918046e-02  4.42756750e-02
 -6.90107867e-02  1.89343584e-03 -1.91826560e-02 -6.21293560e-02
 -4.70787054e-03  3.20480093e-02 -2.16991566e-02  7.24304542e-02
 -6.16419390e-02 -7.22652897e-02 -7.72084575e-03 -4.03654501e-02
 -3.19403000e-02 -4.24890965e-02  4.43831906e-02 -7.16402829e-02
 -3.24892290e-02  6.57907128e-02 -6.64959475e-02 -5.99785186e-02
 -3.85882892e-02 -4.93073501e-02  1.58598945e-02  1.04564689e-02
 -2.21812278e-02 -5.73374424e-03 -6.21495321e-02 -5.02777323e-02
 -7.01851547e-02  7.91015290e-03 -5.24245165e-02  7.13304654e-02
 -6.71293512e-02 -7.27375075e-02  3.91103774e-02  6.93987459e-02
 -1.36106927e-02  2.39804666e-02 -5.92889000e-06  2.79019326e-02
 -1.76795125e-02  3.50028016e-02  4.20876294e-02 -2.45747548e-02
 -7.35790208e-02 -1.29881520e-02 -3.96976136e-02 -2.93287281e-02
  4.37056273e-02 -2.29258388e-02  4.00430784e-02  6.34253665e-04
 -5.62934130e-02 -4.83839400e-02 -2.41980534e-02  5.69559000e-02
 -5.91163673e-02 -6.92686811e-02  5.44971041e-03  2.99424380e-02
 -3.12832445e-02 -2.20844243e-02 -6.92952946e-02 -3.12833302e-02
 -1.16304159e-02 -5.13583086e-02  3.76225114e-02  8.68730992e-03
  1.16243698e-02  1.60143897e-02 -6.03996275e-04 -1.96925420e-02
  6.27532676e-02 -1.16044916e-02  6.22208901e-02  5.82098775e-02
  6.67955056e-02 -2.02351399e-02  1.59565639e-02 -4.48392592e-02
 -8.68905801e-03 -5.71594015e-02 -4.65110354e-02  6.34816065e-02
 -6.83816522e-02 -1.23762141e-03 -1.54382754e-02 -2.32592709e-02
  2.44636871e-02 -1.88223831e-02  8.88191164e-03  3.45004126e-02
  5.69213219e-02 -3.54920067e-02 -7.03116432e-02 -1.74066667e-02
 -7.37251416e-02 -3.32963020e-02  6.89118356e-02  5.25032058e-02
  3.51398028e-02  8.23341310e-04 -3.98501679e-02  8.75178166e-03
  1.80680510e-02 -1.29056824e-02 -6.31237926e-04 -7.19523951e-02
 -2.10421756e-02  5.38782030e-02  5.12494445e-02  2.10376512e-02
 -1.87170040e-02  7.40630478e-02 -1.09658716e-02 -1.78988054e-02
  5.41218407e-02 -2.51087639e-02 -1.98975974e-03 -1.89398285e-02
 -6.52518123e-02 -1.81716327e-02 -5.38193472e-02  6.00500256e-02
 -3.48926224e-02  4.19342220e-02 -5.35959788e-02  7.36484081e-02
 -6.24493957e-02  2.83756237e-02  6.74954131e-02 -5.10180928e-02
  5.66704534e-02 -8.86396877e-03 -4.56691384e-02  4.18734550e-02
  3.93648958e-03 -3.62875126e-02 -4.28886041e-02 -7.33380094e-02
  3.79113741e-02  3.59863825e-02 -9.23584588e-03 -6.51730597e-02
 -5.57965189e-02 -2.29935274e-02 -3.70363779e-02 -3.04178279e-02
 -1.55788921e-02 -1.20061850e-02  4.18501943e-02  3.20219472e-02
  5.16410843e-02  4.67383303e-03 -2.57349052e-02 -3.61600891e-02
 -4.88855839e-02  1.58290192e-02 -1.06931524e-02 -1.19997142e-02
 -6.74860552e-02 -7.38500431e-02  1.13946572e-02  3.83537523e-02
 -1.20199583e-02 -2.11624242e-02 -5.21745943e-02 -4.89495397e-02
  6.96817786e-02  1.23464456e-02 -3.70152108e-02  1.37085458e-02
 -2.82035880e-02 -3.68934916e-03 -2.95664817e-02  1.00712907e-02
  5.54339634e-03  1.34424595e-02 -3.23111340e-02 -1.28774336e-02
 -3.66594791e-02 -6.96096048e-02 -3.21117863e-02 -7.18234628e-02
 -4.39814739e-02 -6.09690249e-02 -3.38945016e-02  4.88800891e-02
  2.86157671e-02  6.04824573e-02 -7.05116838e-02 -3.91384177e-02
  4.31272313e-02 -5.59507385e-02  4.23905067e-02 -1.13423653e-02
 -2.94513293e-02 -4.86020483e-02  1.67056099e-02  6.57901391e-02
  4.62987758e-02  1.02135092e-02 -5.85767999e-02 -3.39142121e-02
 -5.33481613e-02  1.81885157e-02  5.47797307e-02  4.43248302e-02
  7.28473067e-02 -2.46238820e-02 -2.77103595e-02 -2.47974154e-02
  4.20575067e-02 -3.27035077e-02  6.78371489e-02  6.89412355e-02
 -3.55054326e-02  3.20841521e-02  3.61601934e-02  5.78850470e-02
 -1.10042356e-02 -2.06994619e-02  2.37971637e-02  4.30688746e-02
  6.72868174e-03  3.08397412e-03 -6.94627762e-02  6.01353794e-02
  2.60174144e-02  6.80013224e-02  2.40900815e-02 -8.16759001e-03
 -3.68024819e-02 -6.76293150e-02  2.26107333e-02 -5.01901619e-02
 -5.14522642e-02 -4.89715151e-02  1.94910541e-02 -6.48018196e-02
 -4.81652580e-02 -1.36346146e-02 -2.27458030e-03 -4.17030491e-02
  1.97567698e-02 -3.13840248e-02  6.35770485e-02 -1.82704199e-02
 -6.71600178e-02  5.53909354e-02  3.98760550e-02 -1.20728463e-02
  3.08030099e-02  5.06988205e-02  3.62394750e-03 -4.33243737e-02
 -3.21884342e-02 -7.00863600e-02 -8.63941666e-03 -5.67017682e-02
 -3.83706130e-02  2.86881290e-02  6.43152045e-03  4.16086353e-02
  5.25197685e-02 -5.41338325e-02  5.87970428e-02  2.30183429e-03
  4.84623685e-02 -2.49844119e-02  3.27862091e-02 -6.10273853e-02
  5.64217754e-03  7.32754841e-02 -7.98004866e-03 -4.29234691e-02
  2.60491464e-02 -3.81856337e-02  5.13820946e-02  4.73506972e-02
 -4.15020734e-02 -3.17115076e-02  5.69022745e-02  5.10990880e-02
  3.05135753e-02 -7.22197816e-02 -7.23913731e-03  1.96606386e-02
  6.45305961e-02 -5.71410246e-02  6.98072091e-02  8.63992795e-03
  2.16589496e-02 -3.22204307e-02  5.93844838e-02  4.94307205e-02][-0.06663913 -0.04190894  0.02242138  0.05590638 -0.03050913 -0.03840461
  0.03415157 -0.04270567  0.04352305 -0.00508703 -0.05369456  0.00722417
  0.03649341  0.02618231 -0.06648224 -0.04440014  0.04714347  0.05183078
 -0.00226549 -0.0272474   0.02259669 -0.06443634  0.01871468 -0.04657935
  0.02449321  0.05800362  0.02259934  0.01084815  0.05641768  0.04096829
  0.04688774 -0.01393759  0.01051744 -0.04719971  0.03863335 -0.04037854
  0.00344164  0.00457899  0.05118031 -0.03770637 -0.03448634 -0.04203602
 -0.07335864  0.00468962  0.06814821 -0.07132393 -0.03849383 -0.01195607
  0.06618604 -0.04289995 -0.03866503  0.02457012 -0.02812147 -0.01507631
 -0.06435671 -0.02092638 -0.02277783 -0.0121179  -0.0269536  -0.00386291
 -0.02965231  0.0243714  -0.04722906 -0.07146809 -0.01013701  0.00645171
  0.04693193 -0.00284282  0.05505512  0.05551956  0.0423099   0.07035387
 -0.06593385  0.0511338   0.01940529  0.00757135 -0.00436779 -0.02375215
 -0.00042913 -0.02751552 -0.00660016 -0.07335822  0.02195639 -0.02207316
 -0.03353295 -0.0616858   0.06268828 -0.00231059 -0.04392418 -0.01667154
 -0.07087395  0.00593675  0.04659963 -0.07209598 -0.00264192  0.05166779
 -0.01449445 -0.00277258 -0.01941541  0.07261515  0.07388727  0.05141268
  0.02259979  0.02183357  0.05961598 -0.0527884  -0.0034235  -0.02883842
  0.00290422 -0.04464469  0.02857536  0.05206817 -0.01645288  0.04479487
  0.051691   -0.06839409  0.06576926 -0.00326276  0.0662824   0.06875114
 -0.05737887  0.01224588  0.00313824  0.03629412 -0.00052171 -0.06144543
 -0.04804517 -0.05706958 -0.04924772  0.01111846 -0.04842535 -0.03214039
 -0.04104431 -0.05165087  0.05316332  0.0729514   0.05135612 -0.06849921
 -0.02219493  0.02239692 -0.06191329  0.04498185 -0.03730398 -0.0279517
 -0.01167005 -0.05646781 -0.00364571 -0.05712222  0.04348571  0.01891595
 -0.00977421  0.04940331 -0.07099597  0.00823309  0.01559917 -0.00645429
  0.03329027 -0.02342465 -0.04775599  0.05435995  0.07128634  0.02172758
  0.01711638 -0.00971937 -0.03691797 -0.0554594   0.06768011  0.06455673
  0.06162659 -0.03898672 -0.01547167  0.05168077 -0.04043292 -0.05167454
  0.0348257  -0.03867359  0.00781591 -0.06167434 -0.05630589 -0.03125894
 -0.01306933  0.0167058  -0.04592437 -0.03816723  0.04420812  0.07053991
  0.01906103 -0.06399779  0.06962946  0.05213275 -0.03184878 -0.03841337
  0.02548572 -0.03243459  0.00695796  0.02435634 -0.03446768 -0.01547675
 -0.00896855  0.04222834 -0.0542323  -0.01697421  0.00529354  0.06473812
  0.05424654 -0.05832259  0.01755561 -0.06753346  0.06113118  0.0327075
  0.02581457  0.05139504 -0.03192872  0.05961269 -0.02341895  0.02141876
  0.01663274  0.04216787  0.05171833 -0.00886089  0.03689281  0.07073365
 -0.07076788  0.01712178  0.00493208  0.00652296 -0.00505865 -0.00637621
 -0.07090775  0.00550003  0.03933664 -0.03959943 -0.03856658  0.01448601
 -0.02794664 -0.05848485  0.0625701   0.06403769 -0.03206262 -0.01995407
 -0.0285386   0.06091926  0.02104744  0.03336335 -0.07272263 -0.00323779
 -0.05658523 -0.05845223  0.06753814 -0.04571123  0.0329717  -0.02680272
 -0.02527801  0.04528544 -0.00679068 -0.07183959 -0.03150521  0.06742825
 -0.01425244  0.0378432  -0.06865444  0.04990433 -0.01109681  0.06111023
  0.04971741 -0.00295454  0.05722985 -0.02867214  0.01971958 -0.02059875
  0.05213075 -0.00838967 -0.02964916 -0.05527624 -0.03500873  0.036557
 -0.03696393  0.05389115 -0.00059542 -0.01286347  0.01944882 -0.03462557
 -0.02526619  0.01778216  0.07154594 -0.00020269  0.01413965 -0.02985053
 -0.0072578  -0.00961269  0.056222    0.07445756  0.03192807  0.00320314
  0.0687241  -0.05127079  0.0303671   0.04112659 -0.00496139  0.06468409][-0.03984342  0.03281552 -0.04732578  0.01495849 -0.07306887  0.04366031
  0.05204478 -0.02479665  0.02330519 -0.03582255  0.06808837 -0.07373174
 -0.06558811  0.06208925  0.07204936 -0.05519184  0.06308792  0.04128987
  0.0339028  -0.04472876 -0.07006543 -0.00870416  0.02328731 -0.00716148
 -0.03077197  0.01166441 -0.01771472 -0.02628112 -0.00964099 -0.04148512
 -0.01349425  0.0325761   0.01480313 -0.01507207  0.04586413  0.00370337
  0.0128506  -0.06805931 -0.03388448  0.01257209  0.02119545 -0.02171509
 -0.03671539  0.07297162 -0.02309025 -0.04618888  0.06087705  0.07361846
 -0.0670456  -0.00097489 -0.0550073  -0.02331288  0.0111793   0.02618641
  0.02059093 -0.02012701 -0.06108237 -0.00282337 -0.00939806  0.06062296
  0.03372664  0.05226416 -0.0414944  -0.01844506  0.03063127  0.01995519
 -0.05885362 -0.02084708 -0.02523928  0.00477511  0.03063681  0.00616855
 -0.03538575 -0.0081122  -0.01814118  0.00018089 -0.00030834  0.02568908
 -0.04487621 -0.05284994 -0.03143274  0.01965046 -0.00707692  0.0512981
  0.02513781 -0.04897792  0.04408685  0.01477535 -0.03952576 -0.00545861
  0.04305378 -0.04536747 -0.02075328  0.06327358 -0.05484305 -0.05696724
 -0.05381515 -0.00957196  0.01188032 -0.03141261  0.04758711 -0.05464236
  0.05663051 -0.00325205 -0.04193081 -0.0373545   0.05464392 -0.02844885
 -0.03202978 -0.01530509  0.03141036 -0.01017068  0.05000117 -0.01381905
  0.06236807 -0.0567537  -0.01110237  0.02236312  0.05769096  0.05064586
 -0.05888347  0.01260962 -0.00280514 -0.01542374 -0.02933931 -0.0414855
 -0.00885892 -0.02422501 -0.028767   -0.0015391   0.06258687  0.00124071
  0.04391059  0.01423975  0.04132624  0.04727069 -0.00213698 -0.0591872
  0.04033463  0.0696558  -0.024128   -0.05275413 -0.05968064 -0.06580008
  0.05722878 -0.0103008   0.05198593 -0.0391338  -0.03268919 -0.05665354
 -0.01513902  0.05826103  0.01084013 -0.05696882  0.00319485 -0.00757312
  0.04330086  0.04547564 -0.01151112 -0.00660728 -0.02705328  0.0069786
 -0.04980671 -0.00387893  0.06269249  0.06876774  0.03485932 -0.0698741
 -0.01723775 -0.06568833  0.06381282 -0.01620722 -0.01112567 -0.03422682
  0.05241126 -0.0435121  -0.00978369  0.04344533 -0.06542967  0.03156331
  0.00026229  0.00533136  0.00588256 -0.04254783 -0.0348413   0.01130806
  0.04939545 -0.06674708  0.07341133  0.04484959 -0.05543104  0.00528042
  0.02556218 -0.06376709 -0.06948175 -0.05556903  0.04352809  0.06591225
 -0.00128816 -0.06694438  0.02321114 -0.05371238 -0.05050103 -0.05294405
 -0.02904819  0.06284028  0.03780312  0.0003509  -0.07348788 -0.02165459
  0.05947169 -0.00169107 -0.04289448 -0.07109481  0.01991704 -0.00999531
 -0.03528788  0.04843394 -0.03584162 -0.04479849  0.05124833  0.02496782
 -0.02816651  0.06808789  0.06508359  0.03258678 -0.07373166 -0.00331973
  0.04179035  0.06706302  0.05880123  0.01918667  0.07030175  0.0281959
 -0.0044461   0.03528911 -0.0184479   0.04753362  0.06467958 -0.05817917
 -0.01995702 -0.03837438  0.01327515 -0.03017761 -0.05907205  0.06398496
  0.05165574 -0.05494828 -0.06430722  0.02397364  0.05901971 -0.03357463
  0.0396336  -0.02363862  0.03033694 -0.04318421  0.01748599 -0.01740281
  0.03636773 -0.05046776  0.01324282 -0.05198534  0.01501409  0.03129991
  0.03902793 -0.03837402  0.01284266  0.01813537 -0.01578025  0.00144925
  0.0322311   0.00742202  0.01775487  0.06932303  0.00634341  0.01814768
  0.03826775  0.05649662 -0.04952765  0.01249563 -0.0129085   0.03709027
  0.07153913 -0.05530679  0.03888673 -0.02852205  0.00042873  0.05647963
  0.04385007  0.06525511  0.04772308 -0.06127461 -0.01604703 -0.03583119
 -0.07018472  0.06424305 -0.03291367  0.05793942 -0.07120254  0.02351535][-5.88327534e-02 -5.67448847e-02 -7.13701695e-02 -1.10176262e-02
 -4.79270779e-02  4.15656418e-02  3.51612717e-02  3.13095450e-02
 -2.55097561e-02  6.38652965e-02  1.37609476e-02  4.67802361e-02
 -5.33483922e-03  4.44188118e-02  3.58177572e-02  3.02227288e-02
 -2.51849778e-02  1.86953768e-02  2.64686421e-02 -9.00728162e-04
  3.68830711e-02 -4.06216010e-02 -6.77236915e-02  5.84244505e-02
  6.17356300e-02 -3.53285410e-02  1.49632245e-02  4.63730581e-02
  2.59541608e-02  1.17513556e-02  7.11178556e-02  7.07735866e-02
  2.38810834e-02  1.87106989e-02 -6.51731491e-02 -1.29467687e-02
  2.42004246e-02 -5.76516427e-02 -1.32481037e-02 -5.12448363e-02
  6.26579002e-02 -2.85203047e-02 -1.43895485e-02  6.26605973e-02
 -3.33525240e-04  6.06594533e-02 -4.35898080e-02 -1.82838887e-02
 -4.04609041e-03 -6.84315106e-03 -2.89386697e-02  5.49827293e-02
  5.30831516e-03 -4.15274538e-02  2.13217735e-03 -1.45070879e-02
  6.91595748e-02  1.54925883e-03  2.34498475e-02 -2.18103267e-02
  3.01164724e-02 -2.80704116e-03  7.24716559e-02 -3.76819074e-03
  6.09687865e-02 -5.08949868e-02  1.27009293e-02 -1.38389450e-02
  2.85865404e-02 -1.62671804e-02  4.63520736e-02 -7.16252346e-03
 -7.14012608e-02 -3.71686253e-03 -4.23633344e-02 -6.07976988e-02
  2.43909601e-02  8.55309796e-03  6.68114796e-02 -6.57792240e-02
 -1.36035467e-02 -4.84659411e-02  1.35764927e-02 -1.43101942e-02
 -6.00055195e-02  7.26071969e-02 -3.80798206e-02  1.66218355e-02
 -6.89026862e-02 -3.90688889e-02  4.50355001e-02 -2.49711107e-02
  2.09643366e-03 -4.69475240e-03  3.21493745e-02 -6.30123094e-02
  6.31592199e-02 -1.04980143e-02 -4.67850268e-03 -1.69250704e-02
 -3.88850830e-02 -6.27435818e-02  2.47985066e-04  6.75103068e-02
 -5.08538932e-02  5.38008958e-02 -5.68078272e-02 -5.78202046e-02
  7.10505247e-02 -4.93880361e-03  6.41845772e-03  1.45816058e-03
 -3.72507349e-02  6.95855767e-02 -1.93557274e-02  4.76853624e-02
 -3.05515192e-02  4.91960645e-02 -1.68052653e-03 -7.66596198e-03
 -5.54918684e-02 -2.85167806e-02  4.53578793e-02  2.45183110e-02
 -1.45927249e-02  6.75808564e-02  7.08670765e-02 -3.35172005e-02
  2.08190195e-02 -1.66139640e-02  3.25101651e-02 -6.52573183e-02
 -6.58303499e-04 -5.71897626e-02  2.22228505e-02  3.38185169e-02
  5.44858128e-02 -5.63231260e-02  2.73488611e-02 -3.09180841e-02
 -7.14562535e-02  5.33926338e-02  1.84347183e-02 -5.24767861e-02
 -5.50391665e-03  7.50882179e-03  2.19118339e-03  3.54522765e-02
  6.82484731e-02 -3.29288729e-02  5.12161031e-02 -4.93526496e-02
  9.02628154e-03 -6.34355471e-02  4.72488254e-03  1.64919682e-02
  2.52281055e-02  2.98745651e-03  6.49980502e-05 -1.53905917e-02
 -2.05819849e-02  6.66283816e-03  1.91380158e-02  6.55223206e-02
  7.93726742e-03 -3.24069522e-02  8.70115682e-03 -6.16047122e-02
  1.64516047e-02 -6.86292499e-02  3.23675317e-03 -6.68973774e-02
  5.78108616e-02 -3.84511799e-02 -6.92091659e-02 -6.16883300e-02
 -2.00084597e-02  5.67938909e-02 -6.89069331e-02 -6.88612014e-02
 -1.90336462e-02 -9.74596292e-03 -1.84058100e-02  5.12527786e-02
 -6.71733767e-02 -6.81895986e-02  5.79486117e-02  3.33811492e-02
 -6.34851828e-02 -3.46967131e-02 -5.33764847e-02  5.92318177e-02
  3.41459289e-02 -1.25553496e-02  5.71773648e-02  1.01116979e-02
  2.13671997e-02  3.90419886e-02  3.19056660e-02 -1.98754258e-02
 -5.43226562e-02  2.01606564e-02 -6.07499015e-03 -4.65531684e-02
 -1.36018489e-02  2.25940496e-02  2.74880929e-03  4.23506647e-02
 -2.23687291e-02  6.77478313e-02 -7.03623369e-02 -2.96773054e-02
 -3.06247920e-03  3.87633145e-02 -5.30288927e-02  3.19363782e-03
  6.41563386e-02  4.55931500e-02 -6.72392100e-02  2.45803371e-02
  6.01183958e-02  1.86447930e-02  4.84270006e-02 -4.64964584e-02
  3.95081937e-02 -3.47323418e-02 -2.14550607e-02  2.93415487e-02
  7.25962445e-02  6.20325506e-02 -6.71969652e-02 -2.09008660e-02
 -5.31391874e-02  4.62106727e-02 -2.22918354e-02 -2.52425373e-02
 -6.45805970e-02 -5.09431101e-02 -3.43836620e-02  2.21648663e-02
 -3.76641341e-02  3.68983373e-02  7.37462342e-02 -2.98908595e-02
 -5.06656356e-02 -1.04510523e-02  1.01008266e-03  4.64248955e-02
 -1.78430360e-02 -5.64744025e-02 -2.15566307e-02  5.82755879e-02
  4.44899686e-02  7.17570484e-02  5.08589745e-02  3.43058109e-02
 -4.32786606e-02 -3.72352861e-02 -2.29841247e-02 -2.04931274e-02
 -2.53393706e-02  3.69469076e-03  3.13339680e-02  1.22998366e-02
 -7.95083493e-03 -6.18192777e-02  4.92841974e-02  5.06670661e-02
  6.89295530e-02  3.56840640e-02  5.31217754e-02 -2.18605604e-02
 -2.63014063e-02 -4.45046946e-02  5.75014353e-02 -1.51436450e-02
 -6.28174394e-02  2.22592503e-02  6.20609224e-02 -1.98361289e-04
 -6.28084689e-02 -1.51986601e-02  3.57557796e-02 -2.21303981e-02
 -6.45438060e-02 -1.91005170e-02 -2.12184410e-03 -5.92858680e-02
  4.76718731e-02 -8.57055187e-04 -2.99606584e-02  5.90139665e-02
 -3.49979401e-02  7.01635331e-02 -3.56538109e-02  4.61101532e-02
  7.85122067e-03  7.00661913e-02  3.66838388e-02  3.62133645e-02][-6.02994859e-03 -1.56555362e-02  6.71222806e-05  6.20364100e-02
  1.32327080e-02  1.09269097e-02  9.39401984e-03  4.01645526e-02
  6.82908744e-02 -2.76491642e-02 -4.66567278e-03 -1.69453435e-02
 -1.82352588e-02  8.38509202e-03 -3.01462822e-02  5.71043789e-02
  3.90607044e-02 -7.18401894e-02 -5.83913475e-02 -3.25494036e-02
  6.14314973e-02 -2.43742578e-02  2.62406394e-02 -3.58955264e-02
 -3.24762911e-02  4.21669930e-02 -7.06187561e-02  6.98737502e-02
 -6.75750673e-02  6.91452175e-02 -5.12549840e-02 -3.56434546e-02
 -6.30037934e-02 -4.86024283e-02 -5.66919185e-02  2.20358968e-02
 -5.13598695e-02  3.51383537e-03 -3.00620794e-02 -3.35090235e-02
  1.80100054e-02 -1.44945085e-03 -3.99931855e-02 -5.20572290e-02
  3.34270298e-04 -5.54055497e-02 -1.86217502e-02 -6.38163313e-02
 -2.21027322e-02 -6.32380918e-02  1.11117214e-02 -3.63052189e-02
  4.79055122e-02  6.35715872e-02 -3.35313380e-04 -4.29716371e-02
  5.00515923e-02  4.21769917e-04  3.99323776e-02  2.70264745e-02
 -2.88391113e-03 -7.29958639e-02 -4.27476428e-02  2.53298134e-02
  5.17098457e-02 -3.54433879e-02 -5.93691655e-02 -6.49752170e-02
 -7.16594905e-02  4.72042933e-02 -3.96033227e-02  1.40302852e-02
  1.57365203e-03  6.20863587e-02  6.85561895e-02  1.66543573e-02
 -4.03935984e-02 -5.16431928e-02  8.90275091e-03  5.72075397e-02
 -2.28073671e-02 -5.00788018e-02  2.35991329e-02  4.91048694e-02
  2.74541676e-02  1.52527839e-02 -4.65032235e-02  6.80147111e-02
 -3.25510390e-02  5.52918464e-02 -4.80359718e-02 -3.88814993e-02
  1.47629157e-02 -5.32830209e-02  1.81319863e-02 -2.11728439e-02
 -3.76545563e-02 -2.73328982e-02  6.08560890e-02  2.48171911e-02
 -4.02448848e-02 -6.28052726e-02 -7.01263025e-02  5.18215299e-02
  4.86716926e-02 -3.14953513e-02  5.72025776e-04  1.57951191e-02
  5.08519262e-03  5.58187366e-02  2.66320184e-02  5.86896986e-02
 -7.09826872e-02  3.65307182e-03  2.80643702e-02  2.74479091e-02
  1.32645592e-02 -5.14963940e-02 -2.32845694e-02  6.31544590e-02
 -4.76819426e-02 -4.25668582e-02 -9.10521299e-03 -2.20190994e-02
  5.06218374e-02  7.42764622e-02 -1.38196871e-02  5.59895188e-02
 -1.05697885e-02  1.32426769e-02  7.45137036e-03  6.46860749e-02
  3.67092714e-02 -6.03626780e-02 -2.28088573e-02 -1.88213177e-02
 -3.63716483e-02 -7.06250742e-02 -5.48763089e-02  9.33583826e-03
 -6.32770434e-02 -4.84177247e-02  5.76403737e-02 -4.73103151e-02
  7.28822052e-02 -4.85280715e-02  6.89905137e-03  4.63844314e-02
  5.26834726e-02 -4.49719168e-02 -2.75838897e-02 -5.97748980e-02
  3.58004719e-02  1.42656714e-02 -3.43142860e-02  6.74850196e-02
  7.39405602e-02 -5.22493869e-02 -5.94651625e-02 -7.41775557e-02
  4.59048226e-02 -5.47777042e-02 -3.53712663e-02  4.06591669e-02
  3.64813730e-02  4.61427942e-02  6.75607175e-02  3.57607752e-03
  3.44026536e-02  5.16549647e-02  2.65705958e-02  9.81611013e-03
  6.55569732e-02 -1.01578459e-02  6.36626631e-02 -2.70161368e-02
 -1.67630874e-02 -3.95408869e-02  3.76429707e-02  5.85672259e-03
  8.00885260e-03 -1.05816200e-02  3.21801528e-02  4.46316153e-02
  2.16048285e-02 -2.21710391e-02  2.88932249e-02 -1.11745074e-02
  7.33480155e-02 -5.48179150e-02 -5.92566170e-02 -9.87668335e-03
  6.37327433e-02  6.85303658e-03 -4.35347073e-02  5.11000305e-02
 -6.25684559e-02  1.46873519e-02  4.06357348e-02  4.05806825e-02
 -2.52035744e-02  4.89320680e-02  7.49044865e-03  5.95683753e-02
 -4.96051461e-03 -5.75284883e-02 -6.38552308e-02 -3.77669968e-02
  1.27639845e-02  5.56306839e-02 -4.38428670e-03 -2.11958848e-02
 -1.52077265e-02  1.73250735e-02  6.26600683e-02 -2.12396793e-02
  6.49124980e-02 -6.83994740e-02 -5.05760312e-04  6.98749423e-02
 -4.27439697e-02  1.58096254e-02  4.10822183e-02  5.44342846e-02
  8.84148479e-03  6.63287342e-02 -9.30591673e-03 -7.09132105e-02
  5.78857660e-02  6.61434233e-02 -2.48978995e-02  4.51515988e-02
 -4.70724702e-02  6.92822188e-02 -3.44440751e-02 -4.42217477e-02
 -6.94133341e-02 -2.64636725e-02 -3.80091704e-02 -6.68615624e-02
  3.54161635e-02  3.68044674e-02  6.74342066e-02  1.15423426e-02
 -2.35882960e-02  4.52959836e-02 -6.32419065e-02 -2.98425555e-02
 -3.13210413e-02  3.72332782e-02  3.18750665e-02  4.27173078e-02
 -1.86412968e-02 -3.37895118e-02 -2.69230455e-03 -6.65201247e-03
 -1.97094344e-02  7.38697350e-02  6.11942410e-02  5.97104728e-02
  3.76234278e-02  6.17792904e-02 -5.77359498e-02  6.18365705e-02
 -6.86452091e-02 -1.25089660e-02 -4.75971885e-02  1.34434998e-02
  7.19741732e-02 -2.87543572e-02 -7.21431002e-02 -5.17965183e-02
 -1.41881183e-02  6.45977259e-03 -6.26593232e-02  6.35278970e-02
 -2.01487280e-02 -7.04280064e-02 -7.63366371e-03 -8.84659588e-04
 -5.06701320e-03 -4.81911004e-03 -5.28437644e-03 -5.46644293e-02
 -4.41913269e-02 -5.56975603e-03  4.05050442e-02  5.36625385e-02
 -4.40874696e-03  7.14261383e-02 -2.64161155e-02  4.89023402e-02
 -5.00145033e-02  6.33653253e-03  2.45598182e-02  2.27846131e-02
  5.12938946e-02  2.94788778e-02 -6.74783289e-02  2.35665515e-02][ 0.04755522  0.02913373 -0.04832732  0.05716005  0.05030216 -0.00873175
  0.05458175  0.01772755  0.01739218  0.04229826 -0.01358684 -0.03929142
 -0.00449754 -0.00882721  0.03254218  0.05255978 -0.0497241   0.05016235
 -0.06763362  0.0127014   0.07245842  0.06253612  0.03989758 -0.07126048
  0.03294201 -0.04923688 -0.06805151  0.05639745 -0.04566963  0.05397609
  0.0593807  -0.05961741  0.0334048  -0.00505883  0.04701918 -0.0358142
  0.0301535  -0.04584441  0.05653517  0.0646576   0.04583468  0.06339745
  0.07439572  0.00878448 -0.05043157 -0.05192865  0.02250247 -0.01054547
 -0.00174432 -0.00955533 -0.03134706 -0.01605357 -0.0581745  -0.06571135
  0.05439025 -0.06307313  0.04062474  0.00105682 -0.0397437   0.05000024
 -0.00886453  0.03352807  0.05401017  0.00020757  0.02919076 -0.02346195
 -0.07307436 -0.06426311 -0.0626872  -0.03449209  0.00501236  0.06731968
  0.00205745 -0.03845093  0.03844598  0.04019559 -0.03024247 -0.04015909
  0.00035428 -0.07089285 -0.02929804  0.06706429  0.06631207  0.07169257
  0.04005349  0.05290461  0.02044559 -0.04254282 -0.01136626  0.02938696
 -0.01425944 -0.01828794  0.04951357  0.05741763 -0.02492855  0.05964079
 -0.01112683  0.06529026  0.0098281  -0.04442845 -0.01703249  0.06635536
 -0.0160673   0.04534519  0.01046872  0.00582579  0.03316017 -0.04024966
 -0.02975704 -0.0225796   0.0390927  -0.06102815 -0.06721085  0.02482647
  0.01569687 -0.0071384  -0.00507679  0.0586887  -0.04467066 -0.03480548
 -0.01052318 -0.05071093  0.00318754  0.00300218  0.0029989  -0.03640028
  0.01623148 -0.02803867  0.05008466  0.06599003  0.016195    0.05985247
  0.00939922  0.02102436  0.01487608  0.04401106  0.07158519 -0.06363794
 -0.06360725 -0.01137103 -0.03712912 -0.06359427 -0.01563555  0.03761207
 -0.03045403 -0.06922795 -0.06174178  0.06249689  0.03388384  0.04756943
 -0.04751061  0.01446197 -0.03897945 -0.03034065 -0.02298313  0.05105126
 -0.03871847 -0.07103916  0.04835472 -0.0070301   0.04992867 -0.00477535
  0.01873027 -0.02649136  0.07035106 -0.06470007  0.05694471 -0.06664922
 -0.00934225 -0.03067299  0.06597179 -0.0602554  -0.00209663  0.01864544
 -0.05168603 -0.07333145  0.00775274 -0.02187996 -0.01656304  0.03296749
  0.06424041 -0.00032601 -0.05774239  0.01317272 -0.03124651 -0.04967014
  0.02274835  0.04786037  0.01263985  0.03760542  0.00512374  0.06913152
 -0.00452624 -0.00401104 -0.00215025  0.05265898 -0.00027753 -0.04217549
 -0.03140515 -0.03384361  0.04772677  0.03330412  0.05462706 -0.02840781
  0.06772339  0.04777214 -0.02432057 -0.05582927 -0.02467103  0.02429999
 -0.03136281 -0.05164576  0.07414141 -0.0590764  -0.01056594 -0.00894009
  0.04981091  0.0616411   0.01752768 -0.04295409  0.03377495  0.0053841
 -0.0691641  -0.0308495   0.03421784 -0.05623079  0.02795506 -0.02402867
  0.01745666  0.01391558 -0.0345565  -0.07247375 -0.05546389 -0.0048145
 -0.03186857  0.06044273 -0.00484415 -0.03372844 -0.07432805 -0.03893177
  0.00837649 -0.01694134  0.05978104 -0.00986817 -0.05089104 -0.05647239
  0.0267879  -0.01926297 -0.01461246  0.02406289 -0.01042505 -0.02525739
 -0.05749605  0.01755063 -0.06311285 -0.06166657  0.05780117 -0.01682242
 -0.04640398 -0.012401   -0.07246526 -0.01162916  0.00956874 -0.05112805
 -0.01545389  0.01968586 -0.02644776 -0.06603926 -0.04445636  0.07042687
  0.00139338 -0.01803321 -0.02055635  0.02464675 -0.06166487 -0.05958569
 -0.02265684 -0.02293004  0.06524935  0.02777141  0.04195753  0.06577405
  0.02959969  0.05126029  0.04393571 -0.00848474 -0.00245415  0.03301135
 -0.06955861  0.04375641 -0.04736578  0.01285441 -0.01281546  0.03412541
  0.06993867 -0.01246833  0.06890424  0.0343376  -0.0143921   0.00519148][ 5.80238253e-02  2.88957283e-02  6.69456273e-02  6.49134815e-02
 -4.35297228e-02 -5.86569384e-02  3.65746021e-02  7.19495416e-02
  4.23254296e-02 -1.44059062e-02  2.73333266e-02 -2.83949077e-03
 -3.24503928e-02  2.87996233e-02 -2.62357034e-02  7.03907907e-02
 -3.77815589e-02  1.85295194e-03 -1.54860318e-03 -1.94708593e-02
  5.92813641e-02 -3.26052606e-02  6.09130710e-02 -3.00390273e-03
  6.37393743e-02  4.37059626e-02 -4.71572354e-02 -1.57378204e-02
 -3.43260653e-02 -5.16832992e-02 -3.34459469e-02  2.91693956e-03
 -3.50283608e-02  2.39414945e-02 -6.66790605e-02  2.24039182e-02
  2.75923461e-02  3.45625430e-02  3.06561366e-02  6.73673302e-03
  3.37941945e-02  4.39041331e-02 -2.96876505e-02 -5.35480976e-02
 -5.41733392e-02 -4.05189879e-02  4.46174294e-03 -4.43661660e-02
 -4.48830873e-02 -5.93144596e-02 -4.86737713e-02 -5.78823090e-02
 -7.06393346e-02 -6.92113489e-02  5.20177335e-02  5.28654754e-02
  1.77002847e-02 -6.54773191e-02 -4.05515023e-02 -5.01534790e-02
  5.20923585e-02 -7.61227310e-03  7.81600922e-03 -1.01646781e-03
  4.83479649e-02  7.33096153e-02  5.03569692e-02 -5.38894087e-02
 -4.75887991e-02 -4.40240949e-02 -4.39584255e-06 -2.84470133e-02
 -2.70518251e-02  3.00088450e-02 -1.58615783e-02  7.13691711e-02
 -6.92699701e-02 -1.28367245e-02 -4.27881368e-02 -7.16201141e-02
  6.18486106e-02  3.74066830e-03  1.18322298e-02 -5.24214432e-02
  6.09705746e-02  1.78414583e-02  2.37004161e-02  3.31649110e-02
  2.59824991e-02  5.79486787e-03 -4.13204543e-02 -7.02295899e-02
 -4.38642763e-02  2.47683749e-02  1.80325359e-02  6.04338050e-02
 -2.33662352e-02  3.15778330e-02 -4.21100743e-02  3.40799242e-03
  2.72541940e-02  5.39120585e-02  1.23649687e-02 -1.45944394e-02
 -3.87939997e-02  5.76504916e-02 -1.18553638e-02 -5.85648231e-02
  5.18447906e-02  1.70298293e-02  7.02497661e-02  5.04813492e-02
 -6.26160428e-02  1.98777094e-02 -1.67341381e-02  4.13116738e-02
  4.39820215e-02  6.00248426e-02  5.75449318e-03  7.12641180e-02
  6.30311370e-02 -5.21106273e-03 -5.87671399e-02  3.12044472e-02
 -4.35420126e-03 -5.92830777e-03 -4.00707684e-02 -1.55888237e-02
 -4.40644659e-02 -1.69847235e-02  6.53409213e-03  3.56482789e-02
 -3.59359533e-02 -6.60023242e-02 -4.63496000e-02  3.97774950e-02
  9.11474228e-04  5.53227961e-03 -3.81807238e-03 -7.20109046e-03
  5.23576736e-02 -3.62564400e-02 -1.84660293e-02  4.41788957e-02
  3.49109322e-02 -5.59725240e-02  3.18338051e-02 -4.41671833e-02
 -3.62520032e-02 -1.93317235e-02  4.27565277e-02  5.54023534e-02
 -3.96414958e-02  4.73842472e-02 -5.72354421e-02  3.51009071e-02
  4.25194651e-02 -5.79258166e-02  4.27010283e-02 -6.47511333e-03
 -3.29125002e-02 -2.98022479e-03  6.86656833e-02 -2.72118896e-02
  3.52756456e-02  1.17741227e-02  5.24548739e-02  1.33829415e-02
  3.42825353e-02  5.35647124e-02  7.30230361e-02  3.94140929e-02
 -2.66385302e-02 -7.03104734e-02  2.22194269e-02  5.02405018e-02
  1.01483911e-02  2.77441889e-02 -1.06002092e-02  4.00250405e-02
  3.09676677e-03  6.60534948e-02 -2.00883858e-02 -6.33385777e-02
 -2.50136554e-02  2.88330391e-02  6.31895810e-02  4.28881422e-02
  5.47208339e-02  2.04004496e-02 -6.47637621e-02 -7.09766597e-02
 -9.64298844e-04 -3.52428630e-02 -6.98034763e-02 -6.69305623e-02
 -6.73430562e-02 -6.62607104e-02  1.64416581e-02  2.95129418e-03
  7.05138445e-02 -5.73383421e-02  2.96370238e-02 -6.93006814e-02
 -8.92207026e-05 -4.28900607e-02 -1.16003081e-02  3.42475176e-02
 -8.02660733e-03 -4.85640094e-02 -2.53040604e-02 -3.77369635e-02
  6.46417886e-02  7.35446662e-02 -3.51338834e-02 -2.12219954e-02
 -2.06709318e-02  9.76321846e-03 -1.36688240e-02  6.43874705e-02
 -7.01421276e-02  1.10779703e-03 -3.57253663e-02  8.13507289e-03
  2.93309242e-03  8.35763663e-03 -1.71984807e-02  2.62689665e-02
  6.74164146e-02 -4.48124334e-02  4.74913269e-02 -2.27872171e-02
 -2.16235220e-03  4.57493216e-03  4.37971726e-02 -2.00926587e-02
 -3.15867737e-02 -3.77827622e-02  8.69788229e-03  2.52378061e-02
 -1.80972368e-03  6.28096014e-02 -3.25772017e-02 -2.88570412e-02
 -1.94167942e-02 -5.21670990e-02 -5.56128919e-02 -5.98105527e-02
 -5.03422096e-02  1.45021304e-02  3.92447561e-02 -2.79598236e-02
  5.57091236e-02  4.92018238e-02 -6.13611192e-03  2.18240023e-02
 -3.36807445e-02  6.15965724e-02  3.12913284e-02  3.15132290e-02
  2.18898058e-05  6.52115941e-02  6.38986826e-02 -3.20299864e-02
  8.05495679e-03 -2.26024054e-02 -3.21413800e-02 -4.25519049e-02
  2.55569667e-02  2.16676220e-02  6.26599491e-02  3.57248560e-02
  6.15703613e-02 -7.18386620e-02 -2.40155645e-02  4.14173231e-02
 -6.74520209e-02 -3.12274024e-02  6.93016052e-02 -2.11890191e-02
  2.80725509e-02  2.66728550e-02  1.58024058e-02 -5.76584376e-02
 -6.10227212e-02 -6.61857128e-02 -4.34299819e-02  1.90216303e-02
  5.18602133e-02  5.82906604e-03 -4.87360135e-02 -1.03306472e-02
 -4.02723961e-02 -9.25841182e-03 -8.48311186e-03  2.18455493e-02
  7.19031394e-02  5.58656752e-02 -1.78046562e-02 -7.38707185e-03][-7.28152394e-02  4.43414971e-02  7.06106424e-04 -2.48009786e-02
  8.74306262e-03  4.22418490e-02  7.26354122e-02  6.78690672e-02
 -4.85628843e-05 -6.28440082e-03  7.40165263e-03 -5.71228415e-02
  2.71765217e-02 -4.97510061e-02  2.98774615e-02  2.52503306e-02
 -1.93039812e-02  5.31563461e-02  1.93772018e-02 -1.68402642e-02
 -2.22600475e-02  2.70009339e-02  8.56950879e-03 -4.37329970e-02
 -6.93387613e-02 -1.20516643e-02 -1.78269334e-02  2.91604251e-02
 -2.35853307e-02  6.57599568e-02 -2.97607146e-02  4.87477705e-02
  5.72721958e-02  3.40857506e-02 -3.74917760e-02 -4.92464900e-02
 -4.69601154e-03 -1.52945183e-02 -1.34264380e-02  3.25835496e-03
  1.34768635e-02  6.52662367e-02 -6.79550096e-02 -2.21226886e-02
  9.62691754e-03  7.12432712e-02 -8.01048428e-03  1.04682818e-02
 -7.09301978e-02 -4.78768647e-02 -3.60272489e-02  6.10633194e-02
 -4.34705466e-02  1.23476386e-02 -5.95394820e-02  2.67131701e-02
 -5.48715144e-03 -4.22219820e-02  1.53369829e-02 -2.09796056e-02
 -3.85695249e-02 -4.37398776e-02 -2.49421187e-02 -4.74412739e-02
  2.19385326e-02  3.09917405e-02 -3.51078063e-02 -6.31181151e-02
  2.60808691e-02  1.49913132e-03 -7.14257061e-02 -8.10822099e-03
 -4.75432836e-02 -6.23339750e-02 -2.39861384e-02  1.07631683e-02
  2.47584581e-02 -1.76830776e-02  6.44652098e-02 -4.83591184e-02
  5.94994128e-02  2.31738836e-02 -3.45493294e-02  7.30153322e-02
  3.11827362e-02  8.19893181e-03 -3.58730182e-02 -5.67565709e-02
  2.67815143e-02 -5.27949482e-02  7.29380250e-02  5.73763996e-02
 -2.61934176e-02 -3.85436639e-02  7.61665404e-04 -5.26913777e-02
 -1.55083835e-02  6.68692589e-03  2.79345661e-02  5.39272577e-02
  1.03484094e-02 -4.11180481e-02  5.07747829e-02 -7.30775818e-02
  6.37441874e-03  5.92439175e-02  1.83933750e-02 -3.88618633e-02
 -3.90240774e-02  6.64855540e-02 -5.02902754e-02 -4.87776771e-02
 -4.01744135e-02 -2.16368288e-02  2.01002881e-02  9.98602062e-03
  7.36444890e-02  3.34050283e-02  1.00856200e-02  7.35802352e-02
 -5.65111525e-02 -1.92628317e-02  5.37351072e-02 -1.36495456e-02
  4.45763990e-02 -2.91478708e-02  5.91583550e-02  5.60422540e-02
 -4.21261787e-02  4.61726114e-02 -6.68072999e-02  7.40227550e-02
  6.64174408e-02 -7.31822327e-02 -4.65875156e-02  5.40845543e-02
  5.30359745e-02 -6.83931559e-02  5.90359569e-02  2.81982198e-02
 -7.09050521e-02 -6.20693080e-02 -6.40568212e-02  1.92033052e-02
 -3.86283286e-02  7.03150928e-02  6.62738681e-02 -5.55144474e-02
  3.21021974e-02  1.25470459e-02 -7.28331506e-04 -1.77495778e-02
  5.35645932e-02  2.70516425e-02  1.91744640e-02  1.84026510e-02
  1.98727101e-02 -6.93037137e-02 -4.84642386e-03 -5.29700890e-02
 -4.08141278e-02 -4.81031090e-02 -7.39971474e-02  6.66306168e-03
 -7.11664855e-02 -6.79827183e-02  1.30773559e-02 -4.30110842e-03
 -1.13185421e-02  1.73526406e-02 -1.99316703e-02 -6.76139146e-02
  4.23995033e-02  5.76194972e-02  3.84717360e-02 -1.57487132e-02
  5.28109074e-03 -4.81407642e-02  3.15455347e-02 -2.65544169e-02
  6.42778724e-03  2.27015465e-02  5.73724508e-02  5.83754778e-02
 -4.68124487e-02  4.95359898e-02 -3.81391011e-02  3.17555666e-02
 -5.51026426e-02 -3.83456573e-02 -4.89470400e-02  3.33614796e-02
 -1.51025392e-02 -5.09731844e-02  6.98327720e-02 -6.47764057e-02
  6.31370991e-02 -5.35412133e-03 -6.48310184e-02 -4.00302559e-03
  1.87016428e-02  1.37127936e-03  6.69655651e-02  7.34279007e-02
 -5.16724810e-02 -4.75011021e-03  3.18216905e-02 -3.62024456e-03
  5.76066375e-02  3.01733688e-02  3.86657715e-02 -5.82782514e-02
  5.57153970e-02  5.39432913e-02  6.67355210e-02  5.44621497e-02
 -5.41805401e-02  1.09363124e-02 -5.79116121e-02  2.27119774e-02
 -4.63416688e-02  1.74311101e-02  7.25365281e-02  4.91246581e-03
  2.66968384e-02 -1.23796575e-02  3.42040807e-02  6.52246624e-02
  4.64927405e-02 -4.90199067e-02 -5.88772446e-03 -5.33395000e-02
  1.62840933e-02 -5.57075590e-02  1.10739693e-02  5.02232611e-02
 -6.45924807e-02 -1.07128844e-02 -2.19647847e-02 -6.56656399e-02
  7.29414970e-02  1.44950524e-02  3.89293954e-02  1.22153163e-02
 -2.26875655e-02  3.43161523e-02 -5.08119799e-02  3.08079049e-02
  2.20632553e-03 -5.93298227e-02  1.80425867e-02 -4.03523929e-02
  5.13737351e-02 -4.23003808e-02  2.94237807e-02 -5.66580072e-02
 -1.32150911e-02 -2.18056217e-02 -4.76686358e-02  1.51453987e-02
 -2.92963013e-02 -3.68485302e-02  4.34263274e-02 -3.31490859e-02
  5.39798886e-02  3.90367582e-02 -2.00969167e-02 -6.05350919e-02
  3.16144451e-02  5.80625385e-02  1.75292194e-02 -3.02205123e-02
  6.31279796e-02  4.69775349e-02  2.58481503e-02 -4.42053750e-02
  6.20684773e-03  5.73067367e-03  4.58153859e-02 -4.88908999e-02
  3.05768177e-02  4.11586836e-02  7.17790872e-02 -3.75158787e-02
 -9.25252587e-03 -3.29726115e-02  7.01133609e-02 -7.18254447e-02
 -4.52043340e-02 -2.44188160e-02  5.48330247e-02 -4.29398678e-02
  6.33144230e-02  3.55625153e-02 -4.24347818e-02  4.44721729e-02
  4.61196080e-02 -3.94191332e-02  3.40280533e-02  3.81581336e-02][-3.77264619e-03 -6.90444335e-02  1.79023519e-02  2.88897678e-02
 -2.64251232e-03 -6.19379617e-02  6.94250762e-02  6.97902441e-02
 -3.82307880e-02  5.60395569e-02  1.27241760e-02 -4.11872417e-02
  3.64926010e-02 -1.85416974e-02  5.86195737e-02  1.58319920e-02
  2.78386474e-03 -1.71159953e-03  1.19720250e-02 -2.39597447e-02
 -2.25173011e-02 -5.29605299e-02 -1.51836015e-02 -6.42872155e-02
  3.07244137e-02  4.51665893e-02  5.76920658e-02 -4.86951247e-02
  3.95417735e-02  1.38410106e-02  2.48826966e-02 -9.80930030e-03
 -4.38178554e-02  5.97419292e-02 -6.17083795e-02  3.49952802e-02
  2.64529884e-03  4.01503220e-02 -4.22861911e-02  7.39045739e-02
  6.00837469e-02  2.63430178e-03 -3.36859040e-02 -2.57158279e-03
 -3.94697934e-02 -1.22583658e-02 -4.19524349e-02 -3.07767838e-03
  5.07017225e-03 -6.48824796e-02  4.45569754e-02  3.71250063e-02
 -1.51507184e-02 -7.34361261e-03  4.01983559e-02 -2.52292752e-02
  3.17752212e-02  6.54270798e-02 -3.71324942e-02  8.67542624e-03
 -3.15214433e-02 -2.88309120e-02  5.44603318e-02 -6.19446635e-02
 -6.35386929e-02  4.17073816e-03 -2.07730830e-02  5.59791476e-02
 -6.46931678e-03 -3.97249162e-02 -7.15191141e-02  1.13800392e-02
  6.71119690e-02 -5.37391007e-02  5.00894785e-02  5.96187711e-02
 -1.75566077e-02  1.92108005e-03 -3.63865495e-03  5.46558946e-02
 -3.84852178e-02  7.37154335e-02  1.18782222e-02  4.64971438e-02
 -5.72377816e-02 -5.65811843e-02 -4.16163392e-02 -4.88270968e-02
  5.01377806e-02 -6.60277754e-02  2.41056159e-02  7.35698640e-02
 -4.87399101e-03  7.25598186e-02  6.48150891e-02  6.40970618e-02
 -5.60906418e-02  1.61427408e-02 -7.11977482e-05  2.71249041e-02
 -2.42209695e-02  3.43738496e-02  7.15611875e-02  3.11221629e-02
  1.92241594e-02 -4.68679518e-02  3.08868363e-02 -3.96128483e-02
  6.13787174e-02  3.91159579e-02 -5.99805191e-02 -3.49167883e-02
  1.03915781e-02 -6.79717734e-02 -1.01221353e-03  6.15106672e-02
  1.00981221e-02 -3.41947675e-02 -5.19120842e-02 -2.73149833e-02
  1.74406916e-02 -4.16389368e-02  2.95934603e-02  7.20300078e-02
  5.43075651e-02 -6.19923808e-02  1.01421699e-02 -7.24477470e-02
 -7.30807558e-02 -1.81960240e-02  5.86958826e-02  4.54410985e-02
 -5.04674576e-02  3.33537608e-02 -6.62873015e-02 -4.13846113e-02
 -4.47999313e-02 -9.80021805e-03  1.38861313e-02  5.46533763e-02
  1.17373317e-02  1.77179724e-02 -3.54291461e-02  4.60645482e-02
  2.60274857e-03 -7.21343905e-02  3.81541625e-02  1.75886750e-02
 -1.83199048e-02  1.30738840e-02  4.07401249e-02  2.22179219e-02
  4.05664369e-02  8.47543031e-03  6.28989935e-03 -3.33808661e-02
 -4.78179194e-02 -1.93409286e-02 -5.53147495e-02  5.40487170e-02
  3.16445082e-02  5.99283278e-02 -2.93383375e-02  3.59005481e-02
 -6.40885532e-02 -2.74973102e-02 -7.35279098e-02 -2.27176845e-02
 -6.34892583e-02 -5.31440228e-03  6.96961582e-02 -5.08244336e-03
 -4.77639250e-02  5.21104485e-02  5.08031249e-02 -4.02745605e-02
 -4.60459962e-02  3.49639878e-02  5.48489988e-02 -2.95159966e-03
  4.34380919e-02 -1.25611313e-02  1.00979134e-02  5.84463775e-03
  3.01799849e-02 -7.19834566e-02 -3.64262424e-02 -7.50924647e-03
 -1.83069371e-02  2.63600275e-02  1.67853385e-03  6.57015592e-02
 -2.25479156e-02 -3.29461470e-02 -3.93230468e-02 -3.20789628e-02
 -1.92336701e-02  4.44507226e-02 -4.69843820e-02 -7.02653527e-02
 -3.55616137e-02 -3.45909595e-03  3.67100835e-02 -6.18748665e-02
  4.84941006e-02  7.08709508e-02  5.24381995e-02 -2.54581496e-02
  6.13329262e-02  5.83791286e-02 -4.68803309e-02 -2.31391005e-02
  6.61341399e-02  6.27173036e-02 -4.79231030e-02  2.18712538e-02
  3.61927748e-02 -1.21408887e-02 -6.99279457e-03  2.02068388e-02
 -7.11699128e-02  4.71625254e-02 -1.46575496e-02 -6.92990273e-02
  6.28769398e-03 -4.39795852e-03  7.34119862e-02 -1.25603378e-03
 -8.13630223e-03 -1.95170678e-02 -3.47589739e-02  2.76056528e-02
 -2.01088712e-02  5.30314595e-02  2.52233669e-02  1.79027617e-02
  3.16681340e-02 -4.89152372e-02  6.38409853e-02  9.75881517e-03
 -3.26953083e-03 -5.77430129e-02  3.38806808e-02 -7.98822194e-03
 -6.13663420e-02  6.92066699e-02 -4.49375957e-02  6.99680448e-02
 -6.51883334e-02  3.97031382e-02 -1.29876286e-03 -2.56554633e-02
 -5.83258569e-02 -2.05841959e-02  6.50680363e-02  2.50252187e-02
 -3.25243250e-02  6.52230531e-02  2.73028836e-02 -1.51507705e-02
 -1.80387758e-02 -7.40053952e-02 -4.05529737e-02 -8.46228749e-03
 -1.42452531e-02 -7.30616376e-02  5.09928018e-02 -2.65781693e-02
  1.90524384e-02 -5.64335845e-02  6.98623955e-02  4.92612123e-02
  4.06648964e-03 -2.25789025e-02  3.68778855e-02 -2.74590850e-02
  7.29971826e-02 -3.86241823e-03  7.32586533e-02 -1.64252520e-03
 -2.71274559e-02  6.95576966e-02 -6.35048896e-02 -5.63496351e-03
  5.77063709e-02  3.38012725e-02  2.14222744e-02 -2.25173347e-02
  2.79691890e-02  6.35577589e-02 -2.54298747e-02 -1.05068013e-02
  1.20477453e-02 -5.49782142e-02  8.31282884e-03  2.12377608e-02
  4.56788614e-02 -5.29299863e-02 -1.15402043e-04  7.54848868e-03][-0.01370691 -0.06461678  0.06283019 -0.05605648 -0.064287   -0.00986874
  0.05284262  0.06696336 -0.0076305   0.02123186 -0.05401827 -0.06742784
 -0.0356564   0.007966    0.0317957  -0.03285391 -0.07397098 -0.02232822
  0.02456705 -0.03532043 -0.05416919 -0.01031027 -0.05885606  0.0609075
 -0.02218954 -0.03558717 -0.06549266 -0.02443457  0.06298514 -0.02269152
  0.00053806 -0.01057559  0.0517846  -0.05960635 -0.07417543  0.07084522
 -0.01155736  0.01436832 -0.04807851  0.00614941  0.06558254  0.07109234
 -0.07419368  0.00149786  0.00058886 -0.0668311  -0.03508283  0.07108843
  0.02908893  0.03273519  0.05511187  0.0703796   0.03554313  0.04467076
 -0.06693537 -0.00038578 -0.02730129 -0.06137674 -0.03387102 -0.04230723
  0.06338073 -0.05279816 -0.04824874 -0.00205457  0.05564065 -0.03705439
 -0.02419078  0.04468147  0.07283233  0.0725369  -0.01721097 -0.02027681
  0.00545263 -0.01848746  0.05950259 -0.0301822   0.06812809  0.03509145
  0.02275511 -0.03646961  0.01735827 -0.07232723 -0.01893     0.0426249
  0.05900994  0.00135359 -0.04426591 -0.01501117 -0.02864362  0.04881126
 -0.00398277 -0.03221444 -0.05023647 -0.0584883   0.01907547  0.01869364
  0.02679684 -0.0324734   0.00852747  0.01004887  0.0515554   0.03552309
 -0.02364284 -0.07321242 -0.06840982  0.04662091  0.06203237 -0.05398544
  0.02322325  0.0078518  -0.04478164 -0.0593032   0.05908488  0.01797757
 -0.04519318  0.06594445 -0.06672975 -0.060315   -0.04232314 -0.07275413
 -0.0394264   0.05676019  0.0319441  -0.04100674  0.01753298 -0.0564838
  0.05053275 -0.06106029 -0.06981847 -0.02794748 -0.00321947 -0.01855527
 -0.03427083  0.02190913  0.07319619  0.02461603  0.05133611 -0.00893961
 -0.0447169  -0.03987288  0.03352634  0.04498196 -0.06597793 -0.03141422
  0.02484039 -0.0171196   0.02955437  0.0639862  -0.05442559  0.00774878
  0.05923495 -0.01025525  0.06490016  0.00493754  0.05225714  0.06419003
 -0.06789921  0.05254687  0.06000172  0.01841287 -0.07010138  0.0108926
 -0.01796626 -0.00308264  0.04199024 -0.07423831 -0.07143729  0.04520103
  0.06842732 -0.05486701 -0.0019073  -0.03768476  0.07091048  0.06030679
  0.00197126  0.03880462  0.05888367 -0.07111973 -0.03376731  0.02676241
  0.0735092  -0.01395948  0.01910502 -0.06467032  0.01123732 -0.01686719
  0.02411541  0.05457078  0.05547489  0.0269758   0.03380401 -0.02865004
 -0.03562169  0.01198169 -0.05122165  0.00595119  0.0678363   0.0468284
 -0.03497067 -0.05348515 -0.04839509  0.06687546 -0.06991512  0.04121731
  0.07426421  0.05885014  0.04976738 -0.03120468  0.06181675  0.00642277
  0.01482157 -0.05060145  0.0032561   0.05315508 -0.02750357  0.02145411
 -0.0301281  -0.03249232 -0.04721593 -0.01529221  0.01946678 -0.00369348
  0.06647374  0.0290814  -0.00039504  0.0107021   0.06746528  0.05676408
 -0.00077607  0.06851543 -0.07353094 -0.02780513 -0.05686756 -0.02768444
  0.05930275 -0.01709312  0.01370338  0.04756423  0.05144155 -0.04864299
 -0.05208796  0.01187734 -0.00299032 -0.04735945 -0.00383791  0.05501227
 -0.04046348  0.05897248  0.01611841 -0.06657696 -0.03945582  0.03079889
  0.07409281  0.0580941   0.06793156  0.02257014 -0.03788607 -0.04561166
  0.04933999 -0.04582103  0.01214027  0.05841598  0.00798754  0.00176836
  0.04368795  0.05275701  0.04273005  0.03371584  0.05189103 -0.00641207
  0.03044906  0.03217442  0.03875579 -0.02621525 -0.07124251 -0.03969067
  0.01584256  0.01747461  0.03658684  0.06118961 -0.01984235 -0.06109869
 -0.0017366   0.01438987  0.03088799  0.0609794   0.05869853  0.00276592
 -0.04490653  0.04121467 -0.04491446  0.06336536 -0.00484814  0.01059878
 -0.0623324  -0.0198715   0.03408674 -0.01778805 -0.0177728  -0.00777074][-1.37555636e-02  3.45411524e-02 -2.07369514e-02  6.76205754e-03
  1.29855797e-02  3.33831385e-02  5.15363961e-02 -4.37725894e-02
 -3.27376053e-02  4.50490192e-02 -5.61039150e-03 -1.21184848e-02
 -2.44881548e-02  1.61379576e-05 -4.23148200e-02  4.86978441e-02
 -1.54117644e-02  5.74083030e-02  4.14197370e-02 -5.58192357e-02
  1.67976916e-02 -1.67084038e-02 -3.67240272e-02  5.80138713e-02
  7.10356832e-02  6.83143884e-02 -7.05502927e-02  5.03931046e-02
  5.58130592e-02 -6.53222352e-02  4.97155339e-02  6.19643927e-02
  3.67934182e-02  2.79387161e-02 -7.06951022e-02 -4.26074602e-02
  5.38085401e-02 -1.48780495e-02 -6.24823347e-02  4.25550416e-02
  4.90936786e-02  7.00171590e-02 -1.82591677e-02 -2.16155089e-02
 -6.63261488e-02 -1.03128254e-02  6.17937148e-02 -2.18390599e-02
  5.48314303e-03  6.45257384e-02 -2.56534964e-02  1.48329288e-02
 -1.16373599e-02 -2.52947100e-02 -4.60866839e-03  6.05214685e-02
 -4.39166278e-03 -2.57927366e-02  4.53170761e-02 -3.67441252e-02
  4.52852398e-02 -3.02708894e-03  6.13849163e-02 -6.01440258e-02
 -6.59669936e-02 -1.73636191e-02  4.87143546e-02 -6.90875426e-02
  5.31482697e-03 -2.35587358e-03  5.29705733e-02 -5.56754172e-02
 -2.87880003e-03 -4.43601757e-02 -2.84592323e-02  4.81469184e-03
  4.30415198e-02 -3.48914936e-02  1.05970204e-02  5.89987487e-02
 -1.61335021e-02 -3.66493873e-02 -3.44745815e-03 -9.41795111e-03
 -3.69075425e-02 -5.99549748e-02  3.58970314e-02 -5.11733368e-02
 -3.40274312e-02  4.04015481e-02 -7.31039941e-02  2.04594582e-02
 -5.83380461e-05 -4.32905629e-02  4.08714414e-02 -2.06164755e-02
 -4.24956530e-03  3.46868485e-02  2.11067870e-02 -4.18418422e-02
 -4.02152538e-03  8.34702700e-03  2.82477811e-02 -6.10711649e-02
  5.96137196e-02  5.57123125e-03 -7.14010671e-02 -3.81673574e-02
  1.55191496e-02 -4.90224361e-03 -1.62059776e-02 -3.38198245e-02
 -4.71790209e-02 -1.29535273e-02  3.40903550e-03 -1.11551434e-02
  5.19879162e-02  5.01201153e-02  2.07278728e-02 -3.10728699e-02
 -7.23162889e-02 -2.75491737e-02  5.93110770e-02  3.42527181e-02
 -3.87364626e-03  7.33374953e-02 -5.11099249e-02  3.16543877e-02
  5.01357019e-04 -5.17710671e-02  9.03144479e-03  5.08813411e-02
 -8.37026536e-03  3.81415114e-02 -4.94157299e-02 -2.03802437e-03
 -5.04808314e-02 -9.31750238e-03 -1.98100060e-02 -2.67535597e-02
 -4.27443236e-02  2.60253549e-02 -3.90259735e-02  7.35188276e-02
  6.15664572e-02 -2.07982361e-02  2.09028274e-03  4.82620299e-03
  2.24276334e-02 -5.32151572e-02  6.26468956e-02  3.53880823e-02
  3.80065292e-02 -1.42546743e-03  2.03125775e-02  4.45910990e-02
 -7.24212453e-02  5.92887700e-02  3.36199924e-02 -4.27367166e-02
 -5.82305565e-02 -2.52288319e-02  4.34270874e-02 -1.00142211e-02
  1.16604045e-02 -4.52028960e-02 -1.08913779e-02 -6.23947829e-02
  3.56717855e-02 -4.69750687e-02 -5.20773977e-02  7.00084865e-02
  3.03694233e-02 -1.69857144e-02  6.76291436e-02 -3.25298570e-02
  1.35069862e-02  2.03463286e-02 -5.74337877e-02  3.76775414e-02
 -2.00677738e-02 -6.54331148e-02  4.17052433e-02  4.45690900e-02
 -1.94734149e-02  9.06035304e-03  2.88866609e-02 -6.16761297e-03
  4.92120758e-02  4.50753421e-02  2.86369696e-02  4.20865715e-02
 -2.97498927e-02  2.06102505e-02  9.81351733e-03 -2.24258266e-02
  6.81605637e-02  2.30878219e-02  5.28471619e-02 -6.02582023e-02
  5.83834350e-02 -1.29405111e-02  1.43311173e-03 -9.87998396e-03
 -6.71843886e-02  2.45397687e-02  7.39966333e-02  2.17398182e-02
  6.26006573e-02 -3.33735421e-02  3.04928049e-02  1.43206194e-02
  1.88203752e-02 -1.08984038e-02  3.67166102e-02  5.77485859e-02
  8.35703313e-03  7.45066255e-03 -2.70527452e-02  2.31018513e-02
  3.14406678e-02  3.68720293e-02  6.97690845e-02  7.22144693e-02
 -2.11073719e-02  6.91653788e-02  3.15478221e-02 -5.58417439e-02
  6.72030449e-03 -7.35884830e-02  8.15813243e-03 -5.93615547e-02
  7.11532831e-02  3.45327780e-02 -5.65171652e-02 -3.66398431e-02
 -1.19214170e-02 -6.65937364e-02 -9.28425789e-03 -4.10066172e-02
  4.79517877e-03  6.97573572e-02  2.95477137e-02  6.31897897e-02
 -7.04536885e-02 -8.99569690e-03  3.56405973e-02 -5.61826453e-02
  3.75996381e-02 -3.36887613e-02 -2.20508650e-02  4.30860817e-02
  7.14895129e-02 -3.84933613e-02 -1.00097209e-02 -6.38571978e-02
  5.76538295e-02  3.76869813e-02 -3.11173387e-02 -5.48481420e-02
 -1.97117403e-02  2.48730108e-02 -4.70551215e-02 -6.90971538e-02
 -4.52112556e-02 -1.02552623e-02  2.64897197e-03 -7.23765790e-02
 -4.93139662e-02 -2.95423716e-03  1.06472895e-02  4.26129252e-03
  6.09030128e-02 -5.94757870e-02  3.34117636e-02  7.02264160e-02
  1.21074691e-02  5.51892072e-02 -1.63602605e-02 -2.52537541e-02
  4.19405699e-02  6.51247948e-02  7.28504658e-02 -5.28437980e-02
  1.87788382e-02  2.66042426e-02 -5.51354401e-02 -2.88052112e-02
 -5.41430786e-02  3.92332748e-02 -5.08785695e-02 -1.74643882e-02
  1.45354122e-02  7.12843239e-02 -5.66842556e-02 -3.02274525e-03
  5.02462313e-02  5.12036383e-02 -6.95899427e-02  2.27184817e-02][-6.67765662e-02 -5.91637082e-02 -4.69699800e-02 -2.49060057e-02
 -2.18512453e-02 -2.78499573e-02 -1.61390714e-02  4.87327650e-02
  6.65856898e-02 -6.10277802e-03  8.12643766e-03  4.99230474e-02
  2.95019150e-02  6.89855069e-02 -4.91540879e-03  4.29192558e-02
 -3.97422649e-02  7.23455697e-02  5.83519936e-02 -3.83884944e-02
  3.15904468e-02  6.22819811e-02  5.16497046e-02 -5.10354787e-02
  2.45539621e-02 -4.04743403e-02  1.15590170e-02  2.60634497e-02
  3.25566232e-02  2.24632323e-02 -1.94080509e-02 -6.77373335e-02
  4.99470979e-02  5.12055606e-02  7.73813576e-03  5.87188601e-02
  6.14032149e-04 -1.19140558e-02 -5.54498956e-02  3.69466022e-02
  1.94066986e-02 -1.00142434e-02 -6.14264719e-02 -6.59303442e-02
 -6.45040423e-02 -4.86594737e-02 -1.70146301e-02 -4.27811667e-02
  2.61659399e-02 -2.25504898e-02  3.43260318e-02 -6.70806617e-02
 -1.64034218e-03  1.11745298e-02 -2.40997113e-02  6.82466775e-02
  5.13796061e-02 -2.18656287e-02 -1.65994205e-02 -7.43179023e-02
  4.49937358e-02  4.65039164e-02 -1.85513645e-02  6.70562685e-02
  1.37650371e-02  2.57573500e-02  4.51167673e-03  1.62093863e-02
 -4.34837118e-02 -8.43222439e-03  1.16686374e-02 -2.28642002e-02
 -7.09016994e-02 -1.23682693e-02 -9.92675871e-03 -3.24099697e-02
  4.18283790e-02  7.28958398e-02 -6.43522218e-02  6.92240894e-04
  2.57597864e-03 -6.51638955e-03  2.65090242e-02  2.92984843e-02
 -1.87925249e-03 -7.11598173e-02 -1.43357366e-03 -6.87228143e-02
  6.95958734e-03 -3.01741287e-02 -6.70732260e-02  6.15198612e-02
 -4.88412678e-02  4.83700633e-03  6.05882704e-02 -5.95594570e-02
 -5.76125830e-02  2.22755000e-02  3.28938589e-02 -4.71946448e-02
 -4.93466407e-02  5.92249334e-02 -5.37258834e-02  5.65031916e-03
